{"type":"LSTM","options":{"inputSize":4,"inputRange":4,"hiddenLayers":[20,20],"outputSize":4,"decayRate":0.999,"smoothEps":1e-8,"regc":0.000001,"clipval":5,"maxPredictionLength":100,"dataFormatter":{"indexTable":{"t":0,"e":1,"s":2,"unrecognized":3},"characterTable":{"0":"t","1":"e","2":"s","3":null},"values":["test"],"characters":["t","e","s","unrecognized"],"specialIndexes":[3]}},"input":{"rows":5,"columns":4,"weights":{"0":0.06086844205856323,"1":-0.7044601440429688,"2":-0.440700501203537,"3":0.3220076560974121,"4":0.21084335446357727,"5":-0.38316306471824646,"6":0.48050791025161743,"7":0.1240953579545021,"8":0.4493340253829956,"9":-0.0892864316701889,"10":0.260913223028183,"11":-0.5501939058303833,"12":-0.5824684500694275,"13":-0.4398384988307953,"14":-0.7589943408966064,"15":0.31766268610954285,"16":-0.02204315736889839,"17":-0.014550677500665188,"18":0.06489767134189606,"19":0.01619892381131649}},"hiddenLayers":[{"inputMatrix":{"rows":20,"columns":4,"weights":{"0":-0.1652945727109909,"1":-0.7075800895690918,"2":-0.9217072129249573,"3":0.08381514996290207,"4":0.3611672520637512,"5":0.07332371175289154,"6":0.08453679829835892,"7":-0.0725851058959961,"8":0.3263164758682251,"9":0.36865726113319397,"10":0.2035389095544815,"11":-0.07459647208452225,"12":0.5342323184013367,"13":0.2380070984363556,"14":0.6375542879104614,"15":0.00976471696048975,"16":-0.03746303915977478,"17":-0.7448261380195618,"18":-0.6617111563682556,"19":0.3289761245250702,"20":0.2349412590265274,"21":-0.06528521329164505,"22":0.02322239987552166,"23":0.35721418261528015,"24":-0.08085274696350098,"25":-0.6552249789237976,"26":-0.866523265838623,"27":0.3201460540294647,"28":0.3291555643081665,"29":0.12651307880878448,"30":0.33930322527885437,"31":-0.14757812023162842,"32":0.06883449107408524,"33":-0.2593529522418976,"34":-0.5051292181015015,"35":-0.12805910408496857,"36":0.28098830580711365,"37":-0.5335115790367126,"38":0.4501662850379944,"39":-0.004071482457220554,"40":0.06978075206279755,"41":0.07930199801921844,"42":-0.07890252023935318,"43":-0.13874834775924683,"44":0.24470974504947662,"45":0.5948389172554016,"46":0.2596067190170288,"47":-0.2687532901763916,"48":0.335417777299881,"49":0.21779517829418182,"50":0.2090558260679245,"51":0.17478439211845398,"52":0.2561536729335785,"53":-0.26117682456970215,"54":0.269887238740921,"55":-0.1574331521987915,"56":0.2266501635313034,"57":0.5451753735542297,"58":0.5746686458587646,"59":-0.17793433368206024,"60":0.3602527976036072,"61":-0.8830447793006897,"62":0.1287442445755005,"63":0.1504984200000763,"64":0.517103910446167,"65":0.16210928559303284,"66":0.6048761606216431,"67":-0.2101140320301056,"68":-0.04165560379624367,"69":0.11378207057714462,"70":-0.4039883315563202,"71":-0.03217971697449684,"72":0.26282253861427307,"73":0.3064306378364563,"74":0.013690492138266563,"75":-0.1500704288482666,"76":-0.4900546371936798,"77":-0.4568464159965515,"78":-1.2124073505401611,"79":0.3241094648838043}},"inputHidden":{"rows":20,"columns":20,"weights":{"0":0.2608630359172821,"1":0.2147311419248581,"2":0.09240541607141495,"3":-0.20214241743087769,"4":-0.09411003440618515,"5":-0.027638444676995277,"6":0.127851203083992,"7":0.039319511502981186,"8":-0.22810295224189758,"9":0.2663238048553467,"10":-0.2433505654335022,"11":0.0854719802737236,"12":-0.03968161344528198,"13":-0.18911844491958618,"14":-0.05375342443585396,"15":-0.33639073371887207,"16":-0.07190006971359253,"17":-0.022925447672605515,"18":-0.09443292766809464,"19":0.15944041311740875,"20":0.09518373012542725,"21":0.12264695018529892,"22":0.00449299905449152,"23":-0.033741533756256104,"24":-0.12403576821088791,"25":0.09469713270664215,"26":0.1261049211025238,"27":0.04006582126021385,"28":-0.16814136505126953,"29":0.08946647495031357,"30":-0.12723399698734283,"31":0.08584244549274445,"32":-0.11609144508838654,"33":-0.12133746594190598,"34":-0.07707497477531433,"35":-0.09248781204223633,"36":-0.08696440607309341,"37":0.04479856789112091,"38":-0.12073677778244019,"39":0.03830494359135628,"40":0.24446502327919006,"41":0.09054397791624069,"42":-0.06957891583442688,"43":-0.03973706439137459,"44":-0.31637823581695557,"45":0.13194432854652405,"46":0.2661072611808777,"47":0.01515747606754303,"48":-0.3787444531917572,"49":0.061280205845832825,"50":-0.21094928681850433,"51":0.17808154225349426,"52":-0.030789602547883987,"53":-0.06613011658191681,"54":-0.2858469784259796,"55":0.0014608601341024041,"56":-0.023058025166392326,"57":0.11205103993415833,"58":0.047334518283605576,"59":-0.13732951879501343,"60":-0.6858800053596497,"61":-0.13371045887470245,"62":-0.2813988924026489,"63":-0.2387746125459671,"64":0.7891931533813477,"65":-0.5009861588478088,"66":-0.9269882440567017,"67":-0.07679082453250885,"68":0.31223687529563904,"69":0.045535437762737274,"70":0.2783350348472595,"71":0.3248034715652466,"72":0.2201564460992813,"73":0.22439439594745636,"74":-0.29701128602027893,"75":-0.1617576628923416,"76":-0.08556323498487473,"77":0.03495534136891365,"78":0.5131129026412964,"79":0.7665060758590698,"80":-0.13330361247062683,"81":-0.010092070326209068,"82":-0.027439892292022705,"83":-0.29555848240852356,"84":0.13599209487438202,"85":-0.18966475129127502,"86":-0.3504813313484192,"87":0.03238549083471298,"88":-0.06609269976615906,"89":0.3154074251651764,"90":-0.1390954852104187,"91":0.11565206199884415,"92":-0.002167756436392665,"93":-0.07673363387584686,"94":0.021705739200115204,"95":-0.3991602063179016,"96":0.0315738283097744,"97":-0.0780486911535263,"98":0.08019711822271347,"99":0.3065142333507538,"100":-0.5917693972587585,"101":-0.0508543886244297,"102":0.20990285277366638,"103":0.005977632477879524,"104":0.9130821824073792,"105":-0.09333676099777222,"106":-0.9648093581199646,"107":-0.25480368733406067,"108":0.4554693400859833,"109":-0.07733818888664246,"110":0.3806235194206238,"111":-0.08893640339374542,"112":-0.13316693902015686,"113":0.3862755000591278,"114":-0.04777487739920616,"115":-0.023172834888100624,"116":-0.22410650551319122,"117":0.14057593047618866,"118":0.008191193453967571,"119":0.39779168367385864,"120":-0.020403306931257248,"121":-0.018021300435066223,"122":0.05476699024438858,"123":-0.20246216654777527,"124":0.16925093531608582,"125":-0.28010958433151245,"126":-0.31390514969825745,"127":-0.0033293471205979586,"128":-0.09904897212982178,"129":0.2928430140018463,"130":-0.12451689690351486,"131":-0.02765297330915928,"132":-0.1055963933467865,"133":-0.11633621156215668,"134":0.16005012392997742,"135":-0.39468812942504883,"136":-0.06749316304922104,"137":-0.03796200081706047,"138":-0.18815159797668457,"139":0.2511349320411682,"140":-0.07470177859067917,"141":0.1804887354373932,"142":0.11767153441905975,"143":0.307476669549942,"144":0.004331257659941912,"145":0.2283933460712433,"146":0.07924247533082962,"147":-0.12809967994689941,"148":-0.06275821477174759,"149":-0.08904530853033066,"150":0.11865692585706711,"151":-0.005503993947058916,"152":-0.25931400060653687,"153":0.16006924211978912,"154":-0.06480953097343445,"155":0.03632911667227745,"156":-0.058912426233291626,"157":0.11668718606233597,"158":-0.11146688461303711,"159":-0.03827671706676483,"160":0.1593795269727707,"161":0.17519551515579224,"162":0.15786638855934143,"163":-0.011745362542569637,"164":-0.191220223903656,"165":-0.0024521818850189447,"166":0.15350008010864258,"167":-0.013832380063831806,"168":-0.11757337301969528,"169":0.28011801838874817,"170":-0.2727569043636322,"171":-0.15791919827461243,"172":-0.1661391407251358,"173":-0.17600099742412567,"174":0.14483420550823212,"175":-0.3033730685710907,"176":-0.07024728506803513,"177":0.12876801192760468,"178":-0.3512127101421356,"179":0.07350620627403259,"180":-0.22032640874385834,"181":-0.00742733757942915,"182":-0.19019198417663574,"183":-0.23895511031150818,"184":0.44299980998039246,"185":-0.3826102018356323,"186":-0.4754430651664734,"187":0.1287265121936798,"188":0.19627217948436737,"189":0.3722778260707855,"190":-0.29522979259490967,"191":0.22359983623027802,"192":0.11426664143800735,"193":-0.1566494107246399,"194":-0.18247942626476288,"195":-0.3563603460788727,"196":0.05108063668012619,"197":-0.21369223296642303,"198":0.21500131487846375,"199":0.5084661245346069,"200":0.23681971430778503,"201":0.25483065843582153,"202":-0.039535533636808395,"203":-0.16239482164382935,"204":-0.32958126068115234,"205":0.0014494623756036162,"206":0.24668273329734802,"207":0.12273402512073517,"208":-0.25546693801879883,"209":0.295674204826355,"210":-0.40886372327804565,"211":0.11047093570232391,"212":0.12847866117954254,"213":-0.31380265951156616,"214":-0.20609278976917267,"215":-0.2710931599140167,"216":0.0514189638197422,"217":-0.13259796798229218,"218":0.1396624892950058,"219":0.2863406836986542,"220":0.08729731291532516,"221":0.008745681494474411,"222":-0.21410322189331055,"223":-0.2777000367641449,"224":-0.11953453719615936,"225":-0.2470250427722931,"226":0.1092493012547493,"227":-0.0029592271894216537,"228":-0.22375422716140747,"229":0.03333055227994919,"230":0.02710893750190735,"231":0.15149959921836853,"232":0.1826234757900238,"233":0.06483019143342972,"234":-0.23190806806087494,"235":0.05184951797127724,"236":0.0642704963684082,"237":0.006407406646758318,"238":0.2009640485048294,"239":-0.06263711303472519,"240":-0.22035524249076843,"241":0.1379006952047348,"242":0.06904775649309158,"243":0.15371079742908478,"244":0.07879357784986496,"245":0.05674683675169945,"246":-0.19764083623886108,"247":-0.05839652568101883,"248":-0.10276415944099426,"249":0.010080685839056969,"250":0.056164681911468506,"251":0.11926557868719101,"252":-0.09719394147396088,"253":-0.009791378863155842,"254":-0.200148344039917,"255":0.004232758190482855,"256":-0.07504121214151382,"257":0.12942762672901154,"258":0.13932883739471436,"259":0.24485935270786285,"260":0.24860593676567078,"261":0.22064630687236786,"262":0.02680869959294796,"263":-0.21604041755199432,"264":-0.14911717176437378,"265":-0.0185861773788929,"266":0.10102516412734985,"267":0.008103881031274796,"268":-0.14574311673641205,"269":0.27051207423210144,"270":-0.35372188687324524,"271":0.15081363916397095,"272":0.0075460742227733135,"273":-0.26011383533477783,"274":-0.18807858228683472,"275":-0.38384512066841125,"276":0.003527512075379491,"277":-0.19581547379493713,"278":0.012962830252945423,"279":0.2761787474155426,"280":-0.23310108482837677,"281":-0.12130946666002274,"282":-0.43162035942077637,"283":-0.5102162957191467,"284":0.22686521708965302,"285":-0.46934404969215393,"286":-0.3184269070625305,"287":0.05336543917655945,"288":0.010295193642377853,"289":0.11783639341592789,"290":-0.03844655677676201,"291":0.41303735971450806,"292":0.2643495202064514,"293":0.03390343487262726,"294":-0.3513434827327728,"295":-0.0999382883310318,"296":0.09726391732692719,"297":-0.12390035390853882,"298":0.397469699382782,"299":0.25237804651260376,"300":-0.3496662676334381,"301":0.013489710167050362,"302":-0.2046343833208084,"303":-0.3723466694355011,"304":0.5348563194274902,"305":-0.475427508354187,"306":-0.7017819285392761,"307":0.15529099106788635,"308":0.3249169588088989,"309":0.3076421618461609,"310":-0.15367089211940765,"311":0.24208444356918335,"312":0.2597604990005493,"313":-0.013752911239862442,"314":-0.1274331659078598,"315":-0.37863704562187195,"316":0.1520989090204239,"317":-0.2233872413635254,"318":0.2862509787082672,"319":0.5940502285957336,"320":-0.2834077477455139,"321":0.0753871276974678,"322":0.17718003690242767,"323":0.27694350481033325,"324":0.20068879425525665,"325":0.24241755902767181,"326":-0.1671660840511322,"327":-0.2100636512041092,"328":0.14203685522079468,"329":-0.06682992726564407,"330":0.1932171732187271,"331":-0.07253643125295639,"332":-0.3182900846004486,"333":0.09675376117229462,"334":-0.06096707284450531,"335":0.14420194923877716,"336":-0.2087588757276535,"337":0.07651454210281372,"338":-0.13656628131866455,"339":0.08995932340621948,"340":0.28249919414520264,"341":0.35001105070114136,"342":-0.025408165529370308,"343":-0.05129260569810867,"344":-0.5875906944274902,"345":0.12068687379360199,"346":0.5375248193740845,"347":0.08208150416612625,"348":-0.5949311256408691,"349":0.12049152702093124,"350":-0.3015076220035553,"351":0.14057011902332306,"352":-0.018626445904374123,"353":-0.18794524669647217,"354":-0.16944144666194916,"355":-0.07861094921827316,"356":0.06545967608690262,"357":0.04268226772546768,"358":0.054212890565395355,"359":0.02413305826485157,"360":0.1612604856491089,"361":0.11756093055009842,"362":0.028018640354275703,"363":-0.22384826838970184,"364":-0.2610422670841217,"365":-0.10530498623847961,"366":0.15496660768985748,"367":0.08855649083852768,"368":-0.3272445797920227,"369":0.15720757842063904,"370":-0.06417599320411682,"371":0.03451729193329811,"372":0.011791486293077469,"373":-0.19125911593437195,"374":-0.026170751079916954,"375":-0.030266402289271355,"376":-0.0014456845819950104,"377":0.13264916837215424,"378":-0.04724661260843277,"379":-0.1848895102739334,"380":0.46085143089294434,"381":0.308811753988266,"382":0.30374643206596375,"383":0.1691647619009018,"384":-0.5220546126365662,"385":0.3713749349117279,"386":0.5273996591567993,"387":-0.2676035463809967,"388":-0.5189145803451538,"389":0.3131124675273895,"390":-0.2783968448638916,"391":-0.14957700669765472,"392":-0.336331844329834,"393":-0.45991453528404236,"394":-0.03632541000843048,"395":-0.2904188632965088,"396":-0.3056117296218872,"397":0.11318141967058182,"398":-0.35882657766342163,"399":-0.14781680703163147}},"inputBias":{"rows":20,"columns":1,"weights":{"0":-0.23773041367530823,"1":-0.5739238858222961,"2":-0.4973055422306061,"3":-0.5144075155258179,"4":0.023442935198545456,"5":-0.13994576036930084,"6":-0.024166084825992584,"7":-0.6558480262756348,"8":-0.3814719617366791,"9":-0.7462557554244995,"10":-0.5461276769638062,"11":-0.502108097076416,"12":-0.38099405169487,"13":-0.6256524920463562,"14":-0.6944648623466492,"15":-0.06867925077676773,"16":-0.7328019142150879,"17":-0.7434608340263367,"18":-0.15928241610527039,"19":-0.08905207365751266}},"forgetMatrix":{"rows":20,"columns":4,"weights":{"0":-0.2133110612630844,"1":0.049904510378837585,"2":0.21533240377902985,"3":0.27830615639686584,"4":-0.11909551173448563,"5":0.06374857574701309,"6":0.22665159404277802,"7":0.01798086427152157,"8":0.2727767825126648,"9":-0.3783300817012787,"10":0.3129343092441559,"11":0.15783698856830597,"12":0.4030696153640747,"13":-0.40479031205177307,"14":0.2277284413576126,"15":0.02297177165746689,"16":-0.05325248837471008,"17":-0.2696090340614319,"18":0.280722051858902,"19":0.33128565549850464,"20":0.33376380801200867,"21":-0.5590820908546448,"22":0.43499138951301575,"23":-0.11004238575696945,"24":-0.04928833991289139,"25":-0.10229768604040146,"26":0.22504453361034393,"27":0.20849929749965668,"28":0.06400194019079208,"29":0.007546863052994013,"30":0.18305283784866333,"31":-0.011824785731732845,"32":0.013952763751149178,"33":-0.02063869871199131,"34":0.08933226019144058,"35":0.03890310600399971,"36":-0.21314291656017303,"37":0.06857162714004517,"38":0.30547407269477844,"39":0.26749953627586365,"40":-0.37553927302360535,"41":0.1370972990989685,"42":0.09621915966272354,"43":0.3277876079082489,"44":0.038125794380903244,"45":-0.09830822795629501,"46":0.024284930899739265,"47":0.20018617808818817,"48":0.32731541991233826,"49":-0.29422158002853394,"50":0.33916381001472473,"51":0.09521220624446869,"52":-0.2444971799850464,"53":0.1984775960445404,"54":0.22421351075172424,"55":0.17368577420711517,"56":-0.050774749368429184,"57":-0.17593052983283997,"58":-0.21579603850841522,"59":0.1591600924730301,"60":-0.1045256033539772,"61":-0.07696940749883652,"62":0.18696212768554688,"63":0.10409461706876755,"64":0.06581036746501923,"65":-0.0941556766629219,"66":0.2675136923789978,"67":0.021086031571030617,"68":-0.15025025606155396,"69":-0.061899952590465546,"70":0.34124794602394104,"71":0.2541878819465637,"72":0.41784414649009705,"73":-0.3296445310115814,"74":0.3071730136871338,"75":0.14968182146549225,"76":-0.043492820113897324,"77":-0.03049815446138382,"78":0.4861244261264801,"79":0.31436896324157715}},"forgetHidden":{"rows":20,"columns":20,"weights":{"0":-0.0008411100134253502,"1":0.010276323184370995,"2":-0.11422987282276154,"3":-0.16757072508335114,"4":0.13837537169456482,"5":-0.12022572010755539,"6":-0.15333588421344757,"7":0.0344342440366745,"8":0.019456176087260246,"9":-0.05823196470737457,"10":-0.04293437302112579,"11":0.00881397258490324,"12":0.14303237199783325,"13":0.03756639361381531,"14":-0.07473430782556534,"15":-0.013177350163459778,"16":0.06551716476678848,"17":-0.044026702642440796,"18":0.15994814038276672,"19":0.016158366575837135,"20":-0.0469084307551384,"21":0.018904881551861763,"22":-0.005111259873956442,"23":-0.04230443760752678,"24":0.09367235004901886,"25":-0.06428354978561401,"26":-0.06432314962148666,"27":0.09096366912126541,"28":0.0877990871667862,"29":0.005033133551478386,"30":0.07666075974702835,"31":0.027577996253967285,"32":0.12764626741409302,"33":0.04779477417469025,"34":-0.10003417730331421,"35":-0.04086232930421829,"36":0.0721961036324501,"37":0.04165755212306976,"38":0.1461627334356308,"39":0.01672167330980301,"40":0.0484141930937767,"41":0.007225806824862957,"42":-0.05582733452320099,"43":0.062072042375802994,"44":-0.041675176471471786,"45":0.09094738960266113,"46":0.05199034884572029,"47":0.0753287747502327,"48":-0.03518816828727722,"49":0.05745530501008034,"50":-0.05198227986693382,"51":0.026403427124023438,"52":-0.017554687336087227,"53":-0.007130842190235853,"54":-0.1388099193572998,"55":-0.00863191019743681,"56":0.03410405293107033,"57":-0.04970560222864151,"58":0.048342376947402954,"59":0.1165485754609108,"60":-0.07028927654027939,"61":-0.05837440863251686,"62":0.06348768621683121,"63":-0.28699222207069397,"64":0.25095275044441223,"65":-0.22592328488826752,"66":-0.21952968835830688,"67":-0.015976538881659508,"68":0.0567728728055954,"69":0.12257953733205795,"70":0.016046853736042976,"71":-0.07976564764976501,"72":0.07601913064718246,"73":-0.019262149930000305,"74":0.09818664193153381,"75":-0.20643827319145203,"76":-0.019692841917276382,"77":-0.052502986043691635,"78":0.027333155274391174,"79":0.17433315515518188,"80":-0.3052990436553955,"81":-0.07368388772010803,"82":-0.21089480817317963,"83":-0.3556057810783386,"84":0.4555955231189728,"85":-0.39339491724967957,"86":-0.4598417580127716,"87":-0.03824147954583168,"88":0.2306533306837082,"89":0.09375766664743423,"90":0.08630312234163284,"91":0.14381133019924164,"92":0.20396092534065247,"93":0.05879354476928711,"94":0.10209114104509354,"95":-0.11650186777114868,"96":0.1331191211938858,"97":0.02610914409160614,"98":0.1795903593301773,"99":0.3056845963001251,"100":-0.24809983372688293,"101":-0.08443037420511246,"102":-0.03223024308681488,"103":-0.1595083773136139,"104":0.5234324932098389,"105":-0.292793869972229,"106":-0.4776078760623932,"107":-0.11905817687511444,"108":0.13811741769313812,"109":0.0332782045006752,"110":0.07083804905414581,"111":-0.01886737532913685,"112":0.013566112145781517,"113":0.09270960092544556,"114":0.2660304009914398,"115":-0.26245543360710144,"116":-0.03369509428739548,"117":-0.03126920759677887,"118":0.025525016710162163,"119":0.29293885827064514,"120":-0.34250232577323914,"121":-0.10414353013038635,"122":-0.14844736456871033,"123":-0.3219769597053528,"124":0.4845876395702362,"125":-0.4957868754863739,"126":-0.5356143712997437,"127":-0.013288249261677265,"128":0.2718989849090576,"129":0.04475395381450653,"130":0.17756792902946472,"131":0.041423629969358444,"132":0.22586485743522644,"133":0.11405066400766373,"134":0.07267443090677261,"135":-0.22260835766792297,"136":0.01726563088595867,"137":-0.04209301620721817,"138":0.18012608587741852,"139":0.2871987819671631,"140":-0.04445616155862808,"141":0.017295941710472107,"142":0.016402095556259155,"143":0.09871949255466461,"144":0.028042426332831383,"145":0.07792579382658005,"146":0.06323784589767456,"147":-0.023462112993001938,"148":-0.003153563477098942,"149":-0.007006281055510044,"150":-0.0241366159170866,"151":-0.022384248673915863,"152":-0.061775967478752136,"153":0.047322340309619904,"154":0.036518484354019165,"155":-0.03715260326862335,"156":-0.10483263432979584,"157":-0.046074144542217255,"158":-0.015637602657079697,"159":0.001480022445321083,"160":-0.13916954398155212,"161":-0.046055786311626434,"162":-0.07871454209089279,"163":-0.14751753211021423,"164":0.12845547497272491,"165":-0.1160493716597557,"166":-0.14920645952224731,"167":-0.03501981124281883,"168":0.0849606841802597,"169":-0.04124532267451286,"170":0.05818818509578705,"171":-0.0166914202272892,"172":0.05039048194885254,"173":0.08912766724824905,"174":-0.01913328282535076,"175":-0.07751479744911194,"176":-0.004237078130245209,"177":-0.11656568199396133,"178":0.07415299117565155,"179":0.20604074001312256,"180":-0.0023331837728619576,"181":0.006872222758829594,"182":-0.14370405673980713,"183":-0.2217823565006256,"184":0.13583588600158691,"185":-0.2128591686487198,"186":-0.1908034086227417,"187":0.00923439022153616,"188":-0.03728734329342842,"189":0.10195748507976532,"190":-0.0012608953984454274,"191":-0.02064959704875946,"192":0.10856539011001587,"193":0.030338207259774208,"194":-0.08668054640293121,"195":-0.1479584127664566,"196":0.13392481207847595,"197":-0.08573651313781738,"198":0.12890273332595825,"199":0.05641708895564079,"200":0.02610248513519764,"201":-0.014969517476856709,"202":-0.10765501856803894,"203":-0.13278040289878845,"204":-0.04028037190437317,"205":-0.11383900791406631,"206":0.06609423458576202,"207":0.15171581506729126,"208":-0.113184854388237,"209":0.0853007584810257,"210":-0.055173907428979874,"211":0.2034754455089569,"212":0.11822941154241562,"213":-0.06980204582214355,"214":-0.22514556348323822,"215":-0.007061956450343132,"216":0.09653666615486145,"217":-0.032555531710386276,"218":0.2554052472114563,"219":0.06313929706811905,"220":-0.026765763759613037,"221":0.11626030504703522,"222":-0.1256188005208969,"223":-0.09587834775447845,"224":0.031222259625792503,"225":-0.17649924755096436,"226":0.004696275107562542,"227":0.12135326862335205,"228":-0.05484896898269653,"229":0.15807639062404633,"230":-0.15411965548992157,"231":0.1119939461350441,"232":0.06683451682329178,"233":-0.04312622547149658,"234":-0.1176108792424202,"235":-0.10348610579967499,"236":0.11064088344573975,"237":-0.10751739144325256,"238":0.1739809364080429,"239":0.19000889360904694,"240":0.0038501934614032507,"241":0.08288431912660599,"242":-0.004964939784258604,"243":0.08576169610023499,"244":0.10421662777662277,"245":0.007083348464220762,"246":-0.011797161772847176,"247":-0.09131255000829697,"248":-0.03599923104047775,"249":0.10502136498689651,"250":0.048861902207136154,"251":0.10251828283071518,"252":-0.03824685886502266,"253":-0.06754343211650848,"254":0.03848327696323395,"255":-0.01361474022269249,"256":-0.050475869327783585,"257":-0.0036849603056907654,"258":0.08124405145645142,"259":0.2547830045223236,"260":0.06602668762207031,"261":-0.09605930000543594,"262":-0.03524281829595566,"263":-0.022188866510987282,"264":0.025232726708054543,"265":-0.12851554155349731,"266":0.05773797631263733,"267":0.044988952577114105,"268":-0.019413847476243973,"269":-0.054961539804935455,"270":-0.003087378339841962,"271":0.04758934676647186,"272":0.14577648043632507,"273":0.025792161002755165,"274":-0.06573058664798737,"275":-0.07357726246118546,"276":0.025956105440855026,"277":-0.0432114414870739,"278":0.1618213951587677,"279":0.05723031610250473,"280":0.0004903459921479225,"281":0.08294878900051117,"282":-0.09747388958930969,"283":-0.3381613492965698,"284":0.01949460245668888,"285":-0.24816735088825226,"286":0.02453477308154106,"287":0.04559194669127464,"288":-0.004975092597305775,"289":0.13046379387378693,"290":-0.12978415191173553,"291":0.22837655246257782,"292":0.24175606667995453,"293":-0.1445523053407669,"294":-0.2438913732767105,"295":-0.23453614115715027,"296":0.21453188359737396,"297":-0.11355391144752502,"298":0.0970127284526825,"299":0.177750825881958,"300":-0.05810750648379326,"301":-0.12118524312973022,"302":-0.0746515765786171,"303":-0.33936944603919983,"304":0.32044297456741333,"305":-0.504676342010498,"306":-0.1967657506465912,"307":0.16169264912605286,"308":0.12844781577587128,"309":0.05632730945944786,"310":-0.06027929112315178,"311":0.15584225952625275,"312":0.19363802671432495,"313":0.0038919919170439243,"314":-0.0803428590297699,"315":-0.18696916103363037,"316":0.23156775534152985,"317":-0.07154351472854614,"318":0.17587463557720184,"319":0.08241516351699829,"320":-0.07224439829587936,"321":0.009558046236634254,"322":0.06159644573926926,"323":0.07036485522985458,"324":0.01899459771811962,"325":0.08526360243558884,"326":0.02475845441222191,"327":0.037189871072769165,"328":-0.005422408692538738,"329":0.05535499379038811,"330":0.0060083894059062,"331":-0.0698799192905426,"332":0.003079816699028015,"333":-0.020337820053100586,"334":0.06988828629255295,"335":-0.003023686120286584,"336":-0.11523907631635666,"337":0.09411030262708664,"338":-0.0257515087723732,"339":-0.02984708920121193,"340":-0.06491685658693314,"341":-0.02419254370033741,"342":-0.23085711896419525,"343":-0.15681734681129456,"344":0.023703282698988914,"345":-0.1407521665096283,"346":-0.0678546205163002,"347":0.03671761602163315,"348":-0.09712038934230804,"349":0.025087611749768257,"350":-0.07182031869888306,"351":0.13403761386871338,"352":0.16585847735404968,"353":-0.06836122274398804,"354":-0.2347853034734726,"355":-0.04439946636557579,"356":0.06538023799657822,"357":-0.11795660108327866,"358":0.15291725099086761,"359":0.15895985066890717,"360":0.1407133787870407,"361":0.1305519938468933,"362":-0.10601117461919785,"363":0.06741966307163239,"364":-0.041144829243421555,"365":0.02468900755047798,"366":0.16318358480930328,"367":0.11319240927696228,"368":-0.03809886798262596,"369":0.07857636362314224,"370":-0.1810612976551056,"371":0.2371128350496292,"372":-0.012333632446825504,"373":-0.13467289507389069,"374":-0.21617291867733002,"375":-0.0783088356256485,"376":0.06679917871952057,"377":-0.13196472823619843,"378":0.09782674163579941,"379":0.22474606335163116,"380":-0.18703068792819977,"381":-0.012271648272871971,"382":-0.2694689631462097,"383":-0.17546364665031433,"384":0.29515913128852844,"385":-0.26318806409835815,"386":-0.22652651369571686,"387":0.1471419781446457,"388":0.03816178813576698,"389":0.09401774406433105,"390":0.06783763319253922,"391":0.2405073642730713,"392":0.18392471969127655,"393":0.07195600867271423,"394":-0.14685869216918945,"395":-0.10149089992046356,"396":0.087700255215168,"397":-0.06746511161327362,"398":0.36999011039733887,"399":0.3460769057273865}},"forgetBias":{"rows":20,"columns":1,"weights":{"0":0,"1":0,"2":0,"3":0,"4":0,"5":0,"6":0,"7":0,"8":0,"9":0,"10":0,"11":0,"12":0,"13":0,"14":0,"15":0,"16":0,"17":0,"18":0,"19":0}},"outputMatrix":{"rows":20,"columns":4,"weights":{"0":-0.2545207440853119,"1":-0.779109001159668,"2":-0.9262329936027527,"3":0.11256571114063263,"4":0.4062844514846802,"5":0.0570371188223362,"6":0.11073794960975647,"7":0.035672981292009354,"8":0.3142448365688324,"9":0.4687495827674866,"10":0.11515358835458755,"11":-0.10263202339410782,"12":0.553291916847229,"13":0.1991952806711197,"14":0.7043460011482239,"15":-0.008037000894546509,"16":-0.09008877724409103,"17":-0.5616300106048584,"18":-0.47771987318992615,"19":0.41780656576156616,"20":0.3147733807563782,"21":-0.2800377309322357,"22":0.21350069344043732,"23":0.15714392066001892,"24":-0.19153739511966705,"25":-0.4803473949432373,"26":-0.6929565072059631,"27":0.3935379683971405,"28":0.31139901280403137,"29":0.09486600756645203,"30":0.3703474700450897,"31":-0.11280988156795502,"32":-0.0731203481554985,"33":-0.3242102563381195,"34":-0.25973746180534363,"35":-0.06518671661615372,"36":0.3198477327823639,"37":-0.5068587064743042,"38":0.5665380358695984,"39":-0.03667595237493515,"40":-0.15442804992198944,"41":0.0768689438700676,"42":-0.06983055919408798,"43":-0.1215529814362526,"44":0.28502771258354187,"45":0.6601282358169556,"46":0.3241237998008728,"47":-0.278105765581131,"48":0.4261399805545807,"49":0.1277473270893097,"50":0.32922783493995667,"51":0.24793018400669098,"52":0.19737303256988525,"53":-0.1590292602777481,"54":0.5792191028594971,"55":-0.16809706389904022,"56":0.18830041587352753,"57":0.5077217817306519,"58":0.510098397731781,"59":-0.2774781882762909,"60":0.16106334328651428,"61":-0.8983225226402283,"62":0.037142205983400345,"63":0.049263663589954376,"64":0.5837342143058777,"65":0.12647894024848938,"66":0.5021937489509583,"67":-0.17853336036205292,"68":-0.009006251581013203,"69":0.1622397005558014,"70":-0.2806657552719116,"71":-0.06626041233539581,"72":0.2533707618713379,"73":0.23329386115074158,"74":0.018981752917170525,"75":-0.1183464527130127,"76":-0.3860032558441162,"77":-0.5004221796989441,"78":-1.0345958471298218,"79":0.23578137159347534}},"outputHidden":{"rows":20,"columns":20,"weights":{"0":0.13747884333133698,"1":0.019018512219190598,"2":-0.044433049857616425,"3":-0.30581173300743103,"4":0.04062364622950554,"5":-0.10224514454603195,"6":0.04594254866242409,"7":0.0877004936337471,"8":-0.09264754503965378,"9":0.3527328073978424,"10":-0.33141031861305237,"11":0.07337022572755814,"12":-0.03996517136693001,"13":-0.15257133543491364,"14":-0.012065010145306587,"15":-0.4117893576622009,"16":0.05262181907892227,"17":-0.03293688967823982,"18":0.01850922778248787,"19":0.14404931664466858,"20":0.0021741450764238834,"21":0.10283724218606949,"22":-0.004604633431881666,"23":-0.03068348579108715,"24":-0.03189805895090103,"25":0.059194184839725494,"26":-0.002745765494182706,"27":-0.06391710042953491,"28":-0.07586655765771866,"29":0.17685863375663757,"30":-0.16646476089954376,"31":0.04503042995929718,"32":-0.13780272006988525,"33":-0.17279766499996185,"34":-0.15334397554397583,"35":-0.2050752192735672,"36":-0.11127671599388123,"37":0.019102659076452255,"38":-0.06508482247591019,"39":0.10035142302513123,"40":0.17308926582336426,"41":0.32308244705200195,"42":0.0787355974316597,"43":0.05461391806602478,"44":-0.3600550889968872,"45":0.15092727541923523,"46":0.3640396296977997,"47":0.018863746896386147,"48":-0.4134600758552551,"49":0.19186018407344818,"50":-0.2960974872112274,"51":0.14301249384880066,"52":-0.21361707150936127,"53":-0.24097715318202972,"54":-0.31522002816200256,"55":-0.04871336743235588,"56":-0.13708321750164032,"57":0.11070409417152405,"58":0.040689192712306976,"59":-0.0023577786050736904,"60":-0.7385372519493103,"61":-0.17978164553642273,"62":-0.25509846210479736,"63":-0.4237562119960785,"64":1.0457079410552979,"65":-0.7525663375854492,"66":-1.1869028806686401,"67":-0.1404116451740265,"68":0.44894176721572876,"69":0.19136610627174377,"70":0.27107736468315125,"71":0.34417879581451416,"72":0.2212698608636856,"73":0.1700212061405182,"74":-0.24447402358055115,"75":-0.3668679893016815,"76":0.040945373475551605,"77":0.035901810973882675,"78":0.564028799533844,"79":0.8133618831634521,"80":-0.501407265663147,"81":-0.060679901391267776,"82":-0.09518565982580185,"83":-0.4643734097480774,"84":0.5208944082260132,"85":-0.630314826965332,"86":-0.7018188238143921,"87":0.013929947279393673,"88":0.12106568366289139,"89":0.30836209654808044,"90":0.03305252268910408,"91":0.13308954238891602,"92":0.1353108137845993,"93":-0.03876987099647522,"94":0.05776771903038025,"95":-0.3925779461860657,"96":0.042626235634088516,"97":-0.13268588483333588,"98":0.11903813481330872,"99":0.47526711225509644,"100":-0.879546582698822,"101":-0.1173233687877655,"102":0.19955208897590637,"103":-0.17198598384857178,"104":1.3481600284576416,"105":-0.3460559844970703,"106":-1.3945735692977905,"107":-0.3675331473350525,"108":0.5940796136856079,"109":-0.018211161717772484,"110":0.4374280869960785,"111":-0.16253626346588135,"112":-0.20562198758125305,"113":0.3899839520454407,"114":0.23245364427566528,"115":-0.1119823306798935,"116":-0.29524123668670654,"117":0.15820938348770142,"118":-0.07479986548423767,"119":0.40531402826309204,"120":-0.4937112331390381,"121":-0.1998894214630127,"122":-0.12623460590839386,"123":-0.6255328059196472,"124":0.5983248353004456,"125":-0.6375898122787476,"126":-0.6387896537780762,"127":-0.10162486135959625,"128":0.09980682283639908,"129":0.32035186886787415,"130":-0.022180186584591866,"131":0.017850063741207123,"132":0.20567645132541656,"133":0.029134823009371758,"134":0.16782164573669434,"135":-0.45612311363220215,"136":0.11358248442411423,"137":0.04774927720427513,"138":0.04997796192765236,"139":0.3729685842990875,"140":-0.059701692312955856,"141":0.16675664484500885,"142":0.14605629444122314,"143":0.2951040267944336,"144":-0.04957105591893196,"145":0.23744840919971466,"146":0.05060507729649544,"147":-0.1303539276123047,"148":0.04365663602948189,"149":-0.1810254454612732,"150":0.07844044268131256,"151":-0.05315186083316803,"152":-0.3051200807094574,"153":0.19276657700538635,"154":-0.043949369341135025,"155":0.07425030320882797,"156":-0.17479518055915833,"157":0.09364288300275803,"158":-0.061062417924404144,"159":-0.040919434279203415,"160":0.05800503119826317,"161":0.05032600089907646,"162":0.055621325969696045,"163":-0.2823975086212158,"164":0.08195964246988297,"165":-0.06960413604974747,"166":-0.12484540045261383,"167":-0.0037129593547433615,"168":0.06374882161617279,"169":0.3940162658691406,"170":-0.24686214327812195,"171":-0.0785658210515976,"172":-0.030698005110025406,"173":-0.22596415877342224,"174":0.11096829921007156,"175":-0.395338237285614,"176":-0.06673531234264374,"177":-0.09862993657588959,"178":-0.08137623220682144,"179":0.23353983461856842,"180":-0.25576943159103394,"181":0.07515159994363785,"182":-0.11759845167398453,"183":-0.37766599655151367,"184":0.4714548885822296,"185":-0.5342130661010742,"186":-0.6285905241966248,"187":0.07886911928653717,"188":0.22652140259742737,"189":0.43981876969337463,"190":-0.21048805117607117,"191":0.274771511554718,"192":0.1540643274784088,"193":-0.04514719545841217,"194":-0.08171457052230835,"195":-0.45769256353378296,"196":0.08714890480041504,"197":-0.27373796701431274,"198":0.18412889540195465,"199":0.4572414755821228,"200":0.23091033101081848,"201":0.3072347342967987,"202":-0.21296830475330353,"203":-0.11249639093875885,"204":-0.4100709557533264,"205":-0.19240853190422058,"206":0.3396657705307007,"207":0.19442595541477203,"208":-0.2964361310005188,"209":0.2633652091026306,"210":-0.27147242426872253,"211":0.21638496220111847,"212":0.1293707638978958,"213":-0.2942539155483246,"214":-0.09952234476804733,"215":-0.2602713704109192,"216":0.16930100321769714,"217":-0.14347659051418304,"218":0.08126048743724823,"219":0.22097760438919067,"220":0.16729065775871277,"221":-0.00468064658343792,"222":-0.29678454995155334,"223":-0.443980872631073,"224":-0.1711452752351761,"225":-0.2883530557155609,"226":0.17223049700260162,"227":0.06887035071849823,"228":-0.3577583134174347,"229":0.04752452298998833,"230":0.017238344997167587,"231":0.32140040397644043,"232":0.28549638390541077,"233":-0.1197073832154274,"234":-0.20292338728904724,"235":-0.13751091063022614,"236":0.2108108550310135,"237":0.08738118410110474,"238":0.3306170105934143,"239":0.04293576627969742,"240":-0.16528229415416718,"241":0.09781299531459808,"242":0.07391194254159927,"243":0.18258321285247803,"244":0.1584005057811737,"245":0.11840604990720749,"246":-0.15249693393707275,"247":-0.06489896029233932,"248":-0.03823808208107948,"249":0.109712153673172,"250":-0.052316732704639435,"251":0.1469411998987198,"252":-0.22231188416481018,"253":0.013493521139025688,"254":-0.2500562071800232,"255":-0.07306637614965439,"256":-0.09696809202432632,"257":-0.012352355755865574,"258":0.06650033593177795,"259":0.3688550293445587,"260":0.28254783153533936,"261":0.24105919897556305,"262":-0.039476729929447174,"263":-0.27533575892448425,"264":-0.1590200960636139,"265":-0.09056030213832855,"266":0.13998031616210938,"267":0.11282224953174591,"268":-0.19976679980754852,"269":0.32156163454055786,"270":-0.3451436460018158,"271":0.1862490177154541,"272":0.06631974130868912,"273":-0.163524329662323,"274":-0.10753469169139862,"275":-0.27456018328666687,"276":0.08373060077428818,"277":-0.21220286190509796,"278":0.1058991327881813,"279":0.16062450408935547,"280":-0.23795734345912933,"281":-0.1059006080031395,"282":-0.448783814907074,"283":-0.6922597885131836,"284":0.3220103085041046,"285":-0.4681011736392975,"286":-0.30140307545661926,"287":0.10830945521593094,"288":0.11008670926094055,"289":0.14344893395900726,"290":0.004327794071286917,"291":0.373880535364151,"292":0.4678313732147217,"293":0.12021823227405548,"294":-0.2342527210712433,"295":-0.12372030317783356,"296":0.25138598680496216,"297":-0.07109254598617554,"298":0.387225866317749,"299":0.26123690605163574,"300":-0.43436163663864136,"301":-0.07872971892356873,"302":-0.23400476574897766,"303":-0.5473634600639343,"304":0.7862778902053833,"305":-0.6966190934181213,"306":-1.0033787488937378,"307":0.24131377041339874,"308":0.2621212899684906,"309":0.4236467480659485,"310":-0.21135403215885162,"311":0.18685868382453918,"312":0.3537583649158478,"313":-0.0771777406334877,"314":-0.005719718988984823,"315":-0.44516754150390625,"316":0.30818647146224976,"317":-0.19664235413074493,"318":0.3813903033733368,"319":0.5697951316833496,"320":-0.3155016005039215,"321":0.11405529826879501,"322":0.22422118484973907,"323":0.3065797984600067,"324":0.24784928560256958,"325":0.335476279258728,"326":-0.2871912121772766,"327":-0.2247614860534668,"328":0.13472972810268402,"329":-0.10265398770570755,"330":0.17792530357837677,"331":-0.09639125317335129,"332":-0.3530929684638977,"333":0.24838635325431824,"334":-0.028731608763337135,"335":0.18559077382087708,"336":-0.21380187571048737,"337":0.1954687386751175,"338":-0.21374912559986115,"339":0.11577457189559937,"340":0.3142593502998352,"341":0.3136550486087799,"342":-0.15024659037590027,"343":-0.12985892593860626,"344":-0.546880841255188,"345":-0.12072009593248367,"346":0.4009785056114197,"347":0.2209525853395462,"348":-0.44575655460357666,"349":0.1971999704837799,"350":-0.19809705018997192,"351":0.1852521300315857,"352":0.0633365586400032,"353":-0.16141808032989502,"354":-0.19261214137077332,"355":-0.16537778079509735,"356":0.1429852694272995,"357":-0.039196912199258804,"358":0.10499358177185059,"359":0.14252734184265137,"360":0.31138497591018677,"361":0.3875924348831177,"362":-0.05967163294553757,"363":-0.21762879192829132,"364":-0.423635333776474,"365":-0.047006700187921524,"366":0.3958815038204193,"367":-0.011313711293041706,"368":-0.4801221191883087,"369":0.2791416645050049,"370":-0.23670454323291779,"371":0.02186955325305462,"372":-0.027092089876532555,"373":-0.24683576822280884,"374":-0.07539299130439758,"375":-0.1315610557794571,"376":0.024304520338773727,"377":0.11072126030921936,"378":-0.1334942728281021,"379":0.017671853303909302,"380":0.25397250056266785,"381":0.25833868980407715,"382":0.12634702026844025,"383":0.020631657913327217,"384":-0.3095184564590454,"385":0.1349775642156601,"386":0.09686426818370819,"387":-0.16727407276630402,"388":-0.4178865849971771,"389":0.31744474172592163,"390":-0.21021151542663574,"391":-0.04918693006038666,"392":-0.2398521900177002,"393":-0.25578007102012634,"394":-0.10435815155506134,"395":-0.3327035903930664,"396":-0.2686683237552643,"397":0.016792835667729378,"398":-0.1431666761636734,"399":0.1352137178182602}},"outputBias":{"rows":20,"columns":1,"weights":{"0":-0.14336521923542023,"1":-0.5725610852241516,"2":-0.505340039730072,"3":-0.522266685962677,"4":0.1405496895313263,"5":-0.15808795392513275,"6":0.14451824128627777,"7":-0.6555932760238647,"8":-0.36013421416282654,"9":-0.761128306388855,"10":-0.5455218553543091,"11":-0.49044564366340637,"12":-0.3948349952697754,"13":-0.6169815063476562,"14":-0.687755286693573,"15":-0.048299070447683334,"16":-0.7357171773910522,"17":-0.7684480547904968,"18":-0.15900859236717224,"19":-0.10458303242921829}},"cellActivationMatrix":{"rows":20,"columns":4,"weights":{"0":0.5280121564865112,"1":-0.316864013671875,"2":0.0717616081237793,"3":0.14097680151462555,"4":0.013758043758571148,"5":0.16472910344600677,"6":0.04352898895740509,"7":0.03323516622185707,"8":0.2881542444229126,"9":0.726361870765686,"10":0.25083574652671814,"11":-0.7214713096618652,"12":-0.06520644575357437,"13":1.26029634475708,"14":-0.3267473876476288,"15":-0.5910473465919495,"16":-0.23900574445724487,"17":-0.5032179951667786,"18":-0.2850862443447113,"19":0.21422576904296875,"20":0.2697463035583496,"21":1.3219269514083862,"22":0.1264801174402237,"23":-0.8691034913063049,"24":0.27590975165367126,"25":0.3038254976272583,"26":0.23436588048934937,"27":-0.11075014621019363,"28":-0.16482441127300262,"29":-0.49062955379486084,"30":0.18899579346179962,"31":0.9237293004989624,"32":-0.2309211939573288,"33":0.016319453716278076,"34":-0.3347201943397522,"35":-0.0698748305439949,"36":0.3636302947998047,"37":-0.351980984210968,"38":0.15743665397167206,"39":0.3389280140399933,"40":-0.39574870467185974,"41":0.48561975359916687,"42":-0.1044323667883873,"43":-0.16572430729866028,"44":0.034463897347450256,"45":-0.14784878492355347,"46":-0.48917701840400696,"47":0.16503816843032837,"48":-0.2138783484697342,"49":-1.0412590503692627,"50":-0.11084654182195663,"51":0.947084367275238,"52":-0.5758694410324097,"53":0.37548115849494934,"54":-0.16806535422801971,"55":-0.17378273606300354,"56":0.10372091084718704,"57":-0.16147427260875702,"58":0.46166419982910156,"59":-0.008822727017104626,"60":-0.6436269879341125,"61":0.8660508990287781,"62":0.05238468945026398,"63":-0.24101731181144714,"64":-0.09147533774375916,"65":-0.485458105802536,"66":0.3435182273387909,"67":0.8819482922554016,"68":-0.26668453216552734,"69":0.5346905589103699,"70":0.27440038323402405,"71":-0.07817168533802032,"72":-0.46634650230407715,"73":-0.5468321442604065,"74":-0.817197322845459,"75":0.8408646583557129,"76":-0.3304673731327057,"77":-0.6624226570129395,"78":-0.8615104556083679,"79":0.8729751110076904}},"cellActivationHidden":{"rows":20,"columns":20,"weights":{"0":0.04209822043776512,"1":-0.03520228713750839,"2":0.2331669181585312,"3":0.12942719459533691,"4":-0.039227455854415894,"5":0.301350861787796,"6":0.06841909140348434,"7":-0.4265574514865875,"8":0.36906781792640686,"9":-0.03969094157218933,"10":-0.06277300417423248,"11":0.1863899976015091,"12":-0.25826746225357056,"13":-0.06052872911095619,"14":-0.21087543666362762,"15":0.09009017795324326,"16":-0.23142479360103607,"17":0.17245405912399292,"18":-0.18214523792266846,"19":-0.07595962285995483,"20":0.05467277020215988,"21":-0.030729224905371666,"22":0.24879564344882965,"23":0.1171606183052063,"24":-0.12995263934135437,"25":0.27851253747940063,"26":0.14318808913230896,"27":-0.16400307416915894,"28":0.19498588144779205,"29":-0.18068131804466248,"30":0.02727549336850643,"31":0.11440365761518478,"32":-0.34142130613327026,"33":0.10371950268745422,"34":-0.12618733942508698,"35":0.12676772475242615,"36":-0.0892052873969078,"37":0.33801114559173584,"38":-0.195469930768013,"39":-0.26585981249809265,"40":-0.24652527272701263,"41":-0.16697588562965393,"42":-0.15416957437992096,"43":-0.11452237516641617,"44":0.034939300268888474,"45":0.03163531795144081,"46":-0.14213044941425323,"47":-0.002357038203626871,"48":0.17389771342277527,"49":-0.33151519298553467,"50":0.2678579092025757,"51":0.020908530801534653,"52":-0.014160451479256153,"53":0.3207797706127167,"54":0.06568705290555954,"55":0.5468711256980896,"56":0.03865590691566467,"57":0.43384233117103577,"58":0.09390053153038025,"59":-0.3339502513408661,"60":0.14263153076171875,"61":-0.0908752977848053,"62":-0.08714619278907776,"63":0.08778898417949677,"64":-0.32442283630371094,"65":0.07142874598503113,"66":0.2668781280517578,"67":0.12043257802724838,"68":-0.2830287516117096,"69":-0.43232420086860657,"70":0.12703503668308258,"71":0.051327794790267944,"72":0.029592592269182205,"73":0.22894428670406342,"74":-0.09805965423583984,"75":0.6694570183753967,"76":0.13611434400081635,"77":0.5888993740081787,"78":-0.1657470315694809,"79":-0.798768162727356,"80":-0.2784305512905121,"81":-0.22874996066093445,"82":-0.21805424988269806,"83":-0.2211400270462036,"84":0.4079458713531494,"85":-0.3561154901981354,"86":-0.41474372148513794,"87":0.28076106309890747,"88":0.13727757334709167,"89":0.0034248747397214174,"90":0.1421334445476532,"91":-0.04848890006542206,"92":0.33428019285202026,"93":0.04578229412436485,"94":0.36656320095062256,"95":-0.10883044451475143,"96":0.1408027857542038,"97":-0.1986163705587387,"98":0.29197046160697937,"99":0.3002527356147766,"100":0.09041405469179153,"101":-0.06912906467914581,"102":0.08795621246099472,"103":0.22104519605636597,"104":-0.19882822036743164,"105":0.14488963782787323,"106":0.3626532256603241,"107":0.1989259421825409,"108":-0.3432515859603882,"109":-0.41689586639404297,"110":0.12118054181337357,"111":-0.23878566920757294,"112":-0.14351461827754974,"113":0.2533932626247406,"114":0.16239747405052185,"115":0.7289249300956726,"116":0.03157368674874306,"117":0.4283016324043274,"118":-0.045718755573034286,"119":-0.9921741485595703,"120":0.1548410952091217,"121":0.11720927059650421,"122":0.2454868108034134,"123":0.28845667839050293,"124":-0.24150565266609192,"125":0.4051751494407654,"126":0.38727840781211853,"127":-0.26756593585014343,"128":0.03478928655385971,"129":-0.20158030092716217,"130":-0.06760961562395096,"131":0.16776522994041443,"132":-0.3824775218963623,"133":-0.03579782322049141,"134":-0.34573638439178467,"135":0.12924866378307343,"136":-0.20524191856384277,"137":0.20191307365894318,"138":-0.24234449863433838,"139":-0.27484622597694397,"140":0.18333373963832855,"141":0.2322828471660614,"142":-0.1954069435596466,"143":-0.23851819336414337,"144":-0.07060384750366211,"145":-0.014204975217580795,"146":0.10111133754253387,"147":-0.17230144143104553,"148":0.03018433414399624,"149":0.30297911167144775,"150":-0.26811689138412476,"151":0.5132684111595154,"152":0.18996669352054596,"153":-0.3391181230545044,"154":-0.49973198771476746,"155":-0.5131613612174988,"156":-0.012355659157037735,"157":-0.46069541573524475,"158":0.25199711322784424,"159":0.5965845584869385,"160":-0.09310003370046616,"161":-0.10410615056753159,"162":-0.3216492235660553,"163":-0.15749149024486542,"164":0.22776532173156738,"165":-0.3922448754310608,"166":-0.2129630297422409,"167":0.18338041007518768,"168":0.02968721091747284,"169":0.02453472651541233,"170":0.007748487871140242,"171":-0.24383006989955902,"172":0.3841319978237152,"173":-0.05891053378582001,"174":0.4760454297065735,"175":-0.13709160685539246,"176":0.11005698889493942,"177":-0.31919652223587036,"178":0.21371614933013916,"179":0.373994380235672,"180":-0.188355952501297,"181":-0.04314287006855011,"182":0.0011300889309495687,"183":-0.25979915261268616,"184":0.4611608684062958,"185":0.009785015136003494,"186":-0.4557422697544098,"187":-0.37802237272262573,"188":0.5574751496315002,"189":0.12638987600803375,"190":-0.04478016495704651,"191":0.23987692594528198,"192":0.08171872049570084,"193":0.08958214521408081,"194":-0.2913258969783783,"195":-0.17132703959941864,"196":-0.10397113859653473,"197":0.035464588552713394,"198":0.07884220778942108,"199":0.16350576281547546,"200":0.13775129616260529,"201":0.07501785457134247,"202":-0.22513781487941742,"203":-0.056232720613479614,"204":-0.12251129746437073,"205":-0.12621229887008667,"206":0.14856484532356262,"207":0.28343722224235535,"208":-0.36243969202041626,"209":-0.09456584602594376,"210":0.019129686057567596,"211":-0.07090256363153458,"212":0.2008984535932541,"213":-0.04201236739754677,"214":0.1795111894607544,"215":-0.03500313684344292,"216":0.1633753478527069,"217":-0.1484532505273819,"218":0.12151896208524704,"219":-0.1052505224943161,"220":0.27314913272857666,"221":0.3011992275714874,"222":0.32602813839912415,"223":0.2476005256175995,"224":-0.20841196179389954,"225":0.29063665866851807,"226":0.3426178991794586,"227":-0.02421758882701397,"228":-0.2871254086494446,"229":0.1628931164741516,"230":-0.16396325826644897,"231":-0.38333559036254883,"232":-0.29643410444259644,"233":-0.26907965540885925,"234":-0.010610220022499561,"235":-0.08026416599750519,"236":-0.2259354442358017,"237":-0.024405475705862045,"238":-0.3531411290168762,"239":0.0545220784842968,"240":0.07542403787374496,"241":0.03579074889421463,"242":-0.06009489297866821,"243":0.00008727628301130608,"244":0.001031688996590674,"245":-0.0015519052976742387,"246":-0.025375323370099068,"247":-0.15792010724544525,"248":0.0977264791727066,"249":0.3365553617477417,"250":-0.2786900997161865,"251":0.35892829298973083,"252":0.11352997273206711,"253":-0.15219949185848236,"254":-0.4554213583469391,"255":-0.44366878271102905,"256":-0.14346067607402802,"257":-0.46905240416526794,"258":0.15692195296287537,"259":0.6811965107917786,"260":0.056435368955135345,"261":-0.03987608104944229,"262":-0.05132778361439705,"263":0.12142432481050491,"264":-0.12034901231527328,"265":-0.08822354674339294,"266":0.15393854677677155,"267":0.2716073989868164,"268":-0.2766052782535553,"269":-0.17759352922439575,"270":0.007201691158115864,"271":-0.1002059206366539,"272":0.0539078526198864,"273":-0.028450556099414825,"274":0.2810710668563843,"275":0.07815929502248764,"276":0.15922775864601135,"277":-0.023861894384026527,"278":0.07371337711811066,"279":-0.10587789863348007,"280":-0.1696588099002838,"281":-0.12267544865608215,"282":-0.5073301196098328,"283":-0.585075855255127,"284":0.2373516708612442,"285":-0.2928062081336975,"286":-0.2569523751735687,"287":0.22564449906349182,"288":0.24824273586273193,"289":-0.10591474175453186,"290":0.09368015080690384,"291":0.5947299003601074,"292":0.40657177567481995,"293":0.12603066861629486,"294":-0.2922930419445038,"295":-0.05544493719935417,"296":0.36261409521102905,"297":-0.027027564123272896,"298":0.5427425503730774,"299":0.0895167663693428,"300":0.40880319476127625,"301":0.17563596367835999,"302":-0.13391529023647308,"303":0.14512568712234497,"304":-0.4822758734226227,"305":-0.016104349866509438,"306":0.5392489433288574,"307":0.43091511726379395,"308":-0.6050470471382141,"309":-0.01766379363834858,"310":-0.11217997968196869,"311":0.0040403022430837154,"312":0.16311544179916382,"313":-0.21454747021198273,"314":0.027833690866827965,"315":0.1492646038532257,"316":0.11715615540742874,"317":-0.10008831322193146,"318":0.07984252274036407,"319":-0.13410669565200806,"320":0.003243901999667287,"321":0.09422853589057922,"322":-0.1742594689130783,"323":-0.2385401576757431,"324":0.10246641933917999,"325":-0.082147017121315,"326":-0.16481195390224457,"327":-0.1537632942199707,"328":0.16346241533756256,"329":0.3497052490711212,"330":-0.16360747814178467,"331":0.5251997113227844,"332":0.20240066945552826,"333":-0.13272862136363983,"334":-0.5332393050193787,"335":-0.45922523736953735,"336":-0.09635185450315475,"337":-0.3500650227069855,"338":0.16683468222618103,"339":0.6902011632919312,"340":0.10243891924619675,"341":0.0033441251143813133,"342":-0.1691679209470749,"343":-0.06947757303714752,"344":-0.11993550509214401,"345":-0.24815069139003754,"346":0.09839367121458054,"347":0.38327640295028687,"348":-0.3435024619102478,"349":-0.0393410325050354,"350":-0.03057483211159706,"351":0.14968179166316986,"352":0.11386597901582718,"353":0.07666372507810593,"354":0.15782321989536285,"355":0.0951324999332428,"356":0.26017335057258606,"357":-0.11410073935985565,"358":0.17758014798164368,"359":0.029857289046049118,"360":0.08834119141101837,"361":0.11636798828840256,"362":0.2584507465362549,"363":0.2473040521144867,"364":-0.10360885411500931,"365":0.13195933401584625,"366":0.13915739953517914,"367":-0.16749307513237,"368":-0.22139060497283936,"369":0.1777571588754654,"370":-0.28430211544036865,"371":0.01596486009657383,"372":-0.11408553272485733,"373":-0.1645977646112442,"374":-0.30804166197776794,"375":-0.16931134462356567,"376":-0.18061420321464539,"377":-0.16411159932613373,"378":-0.17741507291793823,"379":0.15813586115837097,"380":0.02798089198768139,"381":0.07581502944231033,"382":0.2990032732486725,"383":0.03271225467324257,"384":0.009075918234884739,"385":0.08094871044158936,"386":-0.06193024292588234,"387":-0.3748195171356201,"388":0.08977728337049484,"389":0.1937587857246399,"390":-0.04550790414214134,"391":-0.07538134604692459,"392":-0.21370674669742584,"393":-0.12295915931463242,"394":-0.18841394782066345,"395":-0.16919903457164764,"396":-0.22501109540462494,"397":0.002269311808049679,"398":-0.3423909842967987,"399":0.007020037155598402}},"cellActivationBias":{"rows":20,"columns":1,"weights":{"0":0.32991287112236023,"1":0.10263434052467346,"2":-0.08514866232872009,"3":-0.17686812579631805,"4":0.26261070370674133,"5":-0.36092865467071533,"6":-0.15495960414409637,"7":0.20876893401145935,"8":0.02759643644094467,"9":0.4775245785713196,"10":-0.3076162040233612,"11":-0.2389804720878601,"12":0.25121116638183594,"13":-0.3810536563396454,"14":0.41073843836784363,"15":-0.47289174795150757,"16":0.2209787517786026,"17":-0.07717050611972809,"18":-0.0024894357193261385,"19":0.30833956599235535}}},{"inputMatrix":{"rows":20,"columns":20,"weights":{"0":-0.46527379751205444,"1":-0.44119757413864136,"2":-0.5166614055633545,"3":-0.6081756949424744,"4":0.6601403951644897,"5":-0.6078159213066101,"6":-0.7278947830200195,"7":0.30154579877853394,"8":0.536048173904419,"9":0.2403785139322281,"10":-0.06628768146038055,"11":0.12952151894569397,"12":0.6273465156555176,"13":0.06420288980007172,"14":0.3341906666755676,"15":-0.4167740046977997,"16":0.48848581314086914,"17":-0.5460308194160461,"18":0.4864542484283447,"19":0.5742643475532532,"20":-0.24142156541347504,"21":-0.15804915130138397,"22":-0.20349538326263428,"23":-0.23217028379440308,"24":0.20602768659591675,"25":-0.037665463984012604,"26":-0.3806025981903076,"27":-0.11784114688634872,"28":0.3394852578639984,"29":-0.01770469732582569,"30":-0.06488941609859467,"31":0.40149760246276855,"32":0.17896902561187744,"33":0.011227871291339397,"34":-0.5027263760566711,"35":0.03990621119737625,"36":0.0374147966504097,"37":-0.008828110992908478,"38":0.314935564994812,"39":-0.03897346556186676,"40":-0.3924674689769745,"41":-0.21838931739330292,"42":-0.3499591052532196,"43":-0.478839635848999,"44":0.5196820497512817,"45":-0.7298237085342407,"46":-0.48864176869392395,"47":0.35105815529823303,"48":0.239034041762352,"49":-0.011397167108952999,"50":0.38463887572288513,"51":-0.034759361296892166,"52":0.3956719636917114,"53":0.4356784224510193,"54":0.36154377460479736,"55":-0.010709676891565323,"56":0.49611860513687134,"57":0.12858892977237701,"58":0.3063241243362427,"59":0.4924335777759552,"60":0.529895007610321,"61":0.07889483869075775,"62":0.24745787680149078,"63":-0.4872332215309143,"64":0.07150840759277344,"65":-0.15835000574588776,"66":0.16088131070137024,"67":0.19882072508335114,"68":-0.11215920746326447,"69":0.5062613487243652,"70":-0.8005324006080627,"71":-0.5997680425643921,"72":0.13618440926074982,"73":-0.5445759296417236,"74":0.6861016154289246,"75":-0.8076407313346863,"76":0.3507079780101776,"77":0.13861404359340668,"78":-0.42719346284866333,"79":-0.13784398138523102,"80":-0.41882067918777466,"81":-0.4496161639690399,"82":-0.47495827078819275,"83":-0.684165894985199,"84":0.6888753771781921,"85":-0.6564444303512573,"86":-0.7227225303649902,"87":0.3380405902862549,"88":0.572282075881958,"89":0.2849918603897095,"90":0.017655368894338608,"91":-0.08078739047050476,"92":0.6387823224067688,"93":0.08691675961017609,"94":0.4338597357273102,"95":-0.40199553966522217,"96":0.477804034948349,"97":-0.5005529522895813,"98":0.36359184980392456,"99":0.5380330085754395,"100":0.5219653844833374,"101":0.16555379331111908,"102":0.2789976894855499,"103":0.26410627365112305,"104":-0.39286309480667114,"105":0.38762229681015015,"106":0.431031733751297,"107":-0.09795840084552765,"108":-0.36164867877960205,"109":0.09836290776729584,"110":-0.2753428816795349,"111":-0.31885555386543274,"112":-0.45144590735435486,"113":-0.33736613392829895,"114":0.14743423461914062,"115":-0.14455217123031616,"116":-0.12396131455898285,"117":0.1979096531867981,"118":-0.43494293093681335,"119":-0.3343636691570282,"120":-0.37165260314941406,"121":-0.3977745473384857,"122":-0.6082270741462708,"123":-0.6984519362449646,"124":0.6887776851654053,"125":-0.8904011845588684,"126":-0.7728731036186218,"127":0.3122962713241577,"128":0.5515109300613403,"129":0.8523445129394531,"130":-0.48801931738853455,"131":0.30631375312805176,"132":0.7686855792999268,"133":-0.21625939011573792,"134":-0.13259820640087128,"135":-1.0354275703430176,"136":0.4393216073513031,"137":-0.6870474219322205,"138":0.7601274847984314,"139":1.0734649896621704,"140":-0.39691928029060364,"141":-0.37755241990089417,"142":-0.549247682094574,"143":-0.6125779151916504,"144":1.2864573001861572,"145":-0.8911648392677307,"146":-1.2068912982940674,"147":0.2595144808292389,"148":1.107122778892517,"149":0.6696799993515015,"150":-0.37197425961494446,"151":0.3335201144218445,"152":0.7577093243598938,"153":-0.03979301080107689,"154":-0.008917794562876225,"155":-0.9948202967643738,"156":0.3771498203277588,"157":-0.9067016839981079,"158":0.611074686050415,"159":1.227190613746643,"160":-0.4689483046531677,"161":-0.47808054089546204,"162":-0.7904649376869202,"163":-0.9725484848022461,"164":1.1813571453094482,"165":-1.2640572786331177,"166":-0.9880701899528503,"167":0.567158043384552,"168":0.47683966159820557,"169":0.362067312002182,"170":-0.16879601776599884,"171":0.6174936890602112,"172":1.0204228162765503,"173":0.051092617213726044,"174":-0.12288384139537811,"175":-0.664669930934906,"176":0.7252743244171143,"177":-0.3711511492729187,"178":1.1225553750991821,"179":1.0345124006271362,"180":0.14160706102848053,"181":0.16100408136844635,"182":0.230797678232193,"183":-0.11169978231191635,"184":0.2995466887950897,"185":-0.16269855201244354,"186":-0.25688204169273376,"187":-0.008580771274864674,"188":0.07162736356258392,"189":0.38261640071868896,"190":-0.371006041765213,"191":-0.3715408742427826,"192":-0.2148413211107254,"193":-0.2669857442378998,"194":0.38287580013275146,"195":-0.4845044016838074,"196":0.0632140040397644,"197":0.12299925833940506,"198":-0.31225451827049255,"199":0.04461245238780975,"200":-0.09273985028266907,"201":-0.011010914109647274,"202":-0.2160061001777649,"203":-0.8215156197547913,"204":0.2945827841758728,"205":-0.6249781250953674,"206":-0.3853785991668701,"207":0.09477204084396362,"208":-0.27081558108329773,"209":0.21545881032943726,"210":-0.060041166841983795,"211":-0.046808816492557526,"212":0.41316288709640503,"213":-0.025696685537695885,"214":0.159445121884346,"215":-0.39081424474716187,"216":0.38001126050949097,"217":-0.12115651369094849,"218":0.07881559431552887,"219":0.055685438215732574,"220":-0.5022507905960083,"221":-0.3093126714229584,"222":-0.7703949809074402,"223":-0.9688518643379211,"224":0.9558725953102112,"225":-0.984929084777832,"226":-0.9796034097671509,"227":0.37186935544013977,"228":0.4685167372226715,"229":0.4084378480911255,"230":-0.23528972268104553,"231":0.5179437398910522,"232":0.7480900883674622,"233":0.01842801831662655,"234":-0.2154758721590042,"235":-0.568960428237915,"236":0.6283353567123413,"237":-0.31111595034599304,"238":0.9519408941268921,"239":0.8853702545166016,"240":-0.5182653665542603,"241":-0.2780183255672455,"242":-0.507550835609436,"243":-0.8423492908477783,"244":1.200224757194519,"245":-1.0200334787368774,"246":-1.1146695613861084,"247":-0.1650513857603073,"248":0.6098559498786926,"249":0.17150236666202545,"250":-0.03159857541322708,"251":0.3320293426513672,"252":0.6959054470062256,"253":0.24890275299549103,"254":0.3956831097602844,"255":-0.5437051057815552,"256":0.06832161545753479,"257":-0.3682408630847931,"258":0.8327310681343079,"259":0.8677610158920288,"260":-0.29078245162963867,"261":-0.30279552936553955,"262":0.3370625674724579,"263":0.1225806251168251,"264":0.5560224652290344,"265":-0.010953044518828392,"266":-0.45937782526016235,"267":-0.19576051831245422,"268":0.5790199637413025,"269":-0.1226573958992958,"270":0.3506471812725067,"271":-0.42575347423553467,"272":-0.11445553600788116,"273":0.12508170306682587,"274":0.530531108379364,"275":0.08370456099510193,"276":0.06669682264328003,"277":0.06219661235809326,"278":-0.41166186332702637,"279":-0.12087365984916687,"280":-0.12207638472318649,"281":0.022041168063879013,"282":0.5044089555740356,"283":-0.11137130856513977,"284":0.37760308384895325,"285":-0.009553398936986923,"286":-0.388372540473938,"287":-0.19637121260166168,"288":0.15751568973064423,"289":0.28090617060661316,"290":-0.1921447515487671,"291":-0.5415566563606262,"292":-0.3694770932197571,"293":-0.19696547091007233,"294":0.5394325852394104,"295":-0.31366777420043945,"296":-0.23299381136894226,"297":0.5894055366516113,"298":-0.7308596968650818,"299":-0.43449410796165466,"300":-0.3046506643295288,"301":-0.03498787432909012,"302":0.3388506770133972,"303":-0.4281556308269501,"304":0.7388010621070862,"305":-0.40196043252944946,"306":-0.6398290991783142,"307":0.024104276672005653,"308":0.43441280722618103,"309":0.12516021728515625,"310":-0.14939717948436737,"311":-0.611657440662384,"312":0.04012862220406532,"313":-0.18220852315425873,"314":0.6279356479644775,"315":-0.29152095317840576,"316":0.04712554067373276,"317":0.4210331439971924,"318":-0.6018577814102173,"319":-0.10946925729513168,"320":0.25887492299079895,"321":0.10463909804821014,"322":0.31574538350105286,"323":-0.27591755986213684,"324":0.19557377696037292,"325":-0.21541793644428253,"326":-0.058342136442661285,"327":0.10046125203371048,"328":-0.11830078065395355,"329":0.45055142045021057,"330":-0.4344565272331238,"331":-0.47889819741249084,"332":-0.0014611086808145046,"333":-0.32030969858169556,"334":0.28094083070755005,"335":-0.5076764822006226,"336":0.15924997627735138,"337":0.28346171975135803,"338":-0.35493403673171997,"339":-0.2410569190979004,"340":-0.027376903221011162,"341":-0.007569958455860615,"342":0.15440940856933594,"343":-0.2340892106294632,"344":0.3309112787246704,"345":-0.38191384077072144,"346":-0.36079949140548706,"347":0.27401432394981384,"348":0.08280470967292786,"349":0.3645865321159363,"350":-0.32018014788627625,"351":-0.6427316665649414,"352":0.05815414711833,"353":-0.4352497160434723,"354":0.5993449091911316,"355":-0.3867611587047577,"356":0.2536063492298126,"357":0.33328887820243835,"358":-0.390476256608963,"359":-0.4101142883300781,"360":-0.2757185697555542,"361":-0.3050367832183838,"362":-0.35275447368621826,"363":-0.6744634509086609,"364":0.6952727437019348,"365":-0.68764728307724,"366":-0.6073258519172668,"367":0.11797312647104263,"368":0.27474287152290344,"369":0.19131940603256226,"370":-0.0640195980668068,"371":-0.03592054545879364,"372":0.6554343700408936,"373":0.03043627180159092,"374":0.3116549253463745,"375":-0.5061614513397217,"376":0.29536616802215576,"377":-0.2288922220468521,"378":0.44341716170310974,"379":0.6386932134628296,"380":0.24404606223106384,"381":0.09343855828046799,"382":0.2087135910987854,"383":0.01616530865430832,"384":0.015354413539171219,"385":0.20710542798042297,"386":0.12894423305988312,"387":-0.1619112193584442,"388":-0.19307363033294678,"389":0.15359732508659363,"390":-0.28874969482421875,"391":-0.19502165913581848,"392":-0.200262650847435,"393":-0.24419628083705902,"394":0.1166384294629097,"395":-0.0664784237742424,"396":-0.030119193717837334,"397":0.37017789483070374,"398":-0.4244544208049774,"399":-0.44503816962242126}},"inputHidden":{"rows":20,"columns":20,"weights":{"0":0.0938740149140358,"1":0.23209257423877716,"2":0.9315090775489807,"3":-0.5004913210868835,"4":0.04380623623728752,"5":0.40380099415779114,"6":0.4893593192100525,"7":0.8687523603439331,"8":-0.012221786193549633,"9":-0.4316132068634033,"10":-0.5530728101730347,"11":0.25814491510391235,"12":-0.20560398697853088,"13":0.09286152571439743,"14":-0.21175694465637207,"15":0.2894461452960968,"16":-0.4190363585948944,"17":-0.47166556119918823,"18":-0.056032318621873856,"19":-0.3831951320171356,"20":1.0857977867126465,"21":-0.35988396406173706,"22":0.2536466717720032,"23":-0.22711260616779327,"24":-1.1994448900222778,"25":-0.004087705630809069,"26":-0.040665168315172195,"27":-0.4739985466003418,"28":0.703873872756958,"29":-0.12056386470794678,"30":-0.03223928064107895,"31":0.8397054672241211,"32":-0.40749549865722656,"33":0.18519943952560425,"34":0.03781756013631821,"35":-0.021172307431697845,"36":-0.14823362231254578,"37":-0.6983767747879028,"38":-0.14631664752960205,"39":0.19320376217365265,"40":-1.2678512334823608,"41":0.5528230667114258,"42":0.16638290882110596,"43":0.040031783282756805,"44":1.3690824508666992,"45":0.4356350600719452,"46":0.03534572198987007,"47":0.19256208837032318,"48":-0.7473940849304199,"49":-0.4250366687774658,"50":-1.2062418460845947,"51":-0.9675068259239197,"52":0.3837319016456604,"53":0.3518756031990051,"54":-0.025303075090050697,"55":-0.13741996884346008,"56":-0.10772258043289185,"57":-0.016971610486507416,"58":-0.3324626386165619,"59":-0.7314490079879761,"60":-0.2406957596540451,"61":1.1619702577590942,"62":0.24507127702236176,"63":0.20000985264778137,"64":0.12922769784927368,"65":0.22909361124038696,"66":0.5287697911262512,"67":0.9158575534820557,"68":-0.07272256165742874,"69":0.24057038128376007,"70":0.0614812932908535,"71":-0.17850513756275177,"72":0.6728506684303284,"73":0.3862249553203583,"74":-0.11972294002771378,"75":0.16369369626045227,"76":0.10398022830486298,"77":0.10274200141429901,"78":-0.6298459768295288,"79":-0.46385419368743896,"80":-0.048172254115343094,"81":0.38145214319229126,"82":0.9225025177001953,"83":-0.4300949275493622,"84":-0.023945529013872147,"85":0.293510377407074,"86":0.6947636008262634,"87":1.09284508228302,"88":-0.18592318892478943,"89":-0.2004934847354889,"90":-0.3952922224998474,"91":0.1349514126777649,"92":0.002040992956608534,"93":0.3284781277179718,"94":-0.225880965590477,"95":0.1748771369457245,"96":-0.38778045773506165,"97":-0.4951443374156952,"98":-0.41893237829208374,"99":-0.45619332790374756,"100":0.4917760193347931,"101":0.38098663091659546,"102":0.7200495600700378,"103":-0.2598028779029846,"104":-0.49485519528388977,"105":0.3342307507991791,"106":0.14106769859790802,"107":0.5207544565200806,"108":0.5799528360366821,"109":-0.15414604544639587,"110":-0.16998232901096344,"111":0.49074792861938477,"112":-0.0710536316037178,"113":-0.404083788394928,"114":-0.32407379150390625,"115":0.5002290606498718,"116":-0.13350383937358856,"117":-0.4198044240474701,"118":0.32065001130104065,"119":-0.5478483438491821,"120":-0.7362263202667236,"121":0.4245798587799072,"122":0.10791803896427155,"123":-0.33678287267684937,"124":0.586854875087738,"125":0.5091812610626221,"126":0.2668803632259369,"127":0.3506788909435272,"128":0.02259238436818123,"129":-0.3752465546131134,"130":-0.6508623957633972,"131":-0.18901069462299347,"132":0.6122214198112488,"133":-0.07480187714099884,"134":-0.31987565755844116,"135":0.24861730635166168,"136":-0.23444536328315735,"137":-0.09912706911563873,"138":-0.14947131276130676,"139":-0.7744380235671997,"140":0.6252925395965576,"141":-0.10240285098552704,"142":-0.05293644219636917,"143":0.02862069383263588,"144":-0.6131520867347717,"145":-0.17229929566383362,"146":0.059102337807416916,"147":-0.003956138156354427,"148":0.11989471316337585,"149":0.18877224624156952,"150":-0.26641592383384705,"151":0.1794360876083374,"152":0.38232508301734924,"153":0.35921069979667664,"154":0.09014929831027985,"155":-0.2125709503889084,"156":0.01993204839527607,"157":-0.42777708172798157,"158":-0.4768904745578766,"159":-0.12078553438186646,"160":-0.38043636083602905,"161":0.6036019325256348,"162":-0.23507115244865417,"163":-0.2252800166606903,"164":0.5250151753425598,"165":0.5835146307945251,"166":-0.10547025501728058,"167":0.26815614104270935,"168":-0.18346774578094482,"169":-0.43952926993370056,"170":-0.5625730752944946,"171":-0.07316452264785767,"172":0.016571929678320885,"173":0.07763698697090149,"174":-0.2950343191623688,"175":0.32280728220939636,"176":-0.33918702602386475,"177":0.3972122371196747,"178":-0.11400213837623596,"179":-0.4791954457759857,"180":0.510151207447052,"181":0.9131081104278564,"182":0.5494621396064758,"183":0.13648532330989838,"184":-0.6878141760826111,"185":0.006564821116626263,"186":0.45776909589767456,"187":0.9764226078987122,"188":0.26514795422554016,"189":0.4004426598548889,"190":0.3652261793613434,"191":0.2885912358760834,"192":0.5821762084960938,"193":0.5697017908096313,"194":0.03580554947257042,"195":-0.0627482607960701,"196":0.13800837099552155,"197":-0.43419691920280457,"198":-0.5777411460876465,"199":-0.03498956188559532,"200":0.6911559700965881,"201":0.7498327493667603,"202":0.4111129939556122,"203":-0.025503911077976227,"204":-0.9734730124473572,"205":0.09008815139532089,"206":-0.1441863626241684,"207":0.3125286102294922,"208":0.6542822122573853,"209":0.44558197259902954,"210":0.582893431186676,"211":0.6059991717338562,"212":0.328783243894577,"213":0.12216826528310776,"214":-0.16123656928539276,"215":0.15745805203914642,"216":0.06530885398387909,"217":-0.32731518149375916,"218":-0.18817900121212006,"219":-0.14925923943519592,"220":-0.3607000410556793,"221":0.42038634419441223,"222":-0.20493650436401367,"223":-0.4426586925983429,"224":0.40907707810401917,"225":0.4420599341392517,"226":-0.001852415851317346,"227":0.1514575332403183,"228":-0.06646935641765594,"229":-0.47868338227272034,"230":-0.565162181854248,"231":0.06212330609560013,"232":-0.13841716945171356,"233":-0.09202665090560913,"234":-0.3495394289493561,"235":0.29989904165267944,"236":-0.32424870133399963,"237":0.5579994916915894,"238":0.08110488206148148,"239":-0.4132872223854065,"240":0.5209754109382629,"241":0.43893861770629883,"242":-0.3589079976081848,"243":0.20404259860515594,"244":-0.6033413410186768,"245":-0.25284379720687866,"246":-0.604939877986908,"247":-0.4268464148044586,"248":0.06628753989934921,"249":0.4041768014431,"250":0.39892813563346863,"251":0.21925680339336395,"252":0.32556280493736267,"253":0.44626301527023315,"254":0.2596125602722168,"255":-0.2845973074436188,"256":0.08817489445209503,"257":-0.12438938766717911,"258":-0.471708744764328,"259":0.1412515789270401,"260":0.8312031626701355,"261":0.7617747187614441,"262":0.48195597529411316,"263":-0.24300457537174225,"264":-0.9183474183082581,"265":0.045652441680431366,"266":-0.39581191539764404,"267":0.046355605125427246,"268":0.8498266339302063,"269":0.3050486743450165,"270":0.30318111181259155,"271":0.8894561529159546,"272":0.2238585501909256,"273":0.1701991707086563,"274":-0.08572036772966385,"275":0.20191293954849243,"276":-0.08587227016687393,"277":-0.8500204086303711,"278":-0.36097395420074463,"279":-0.09744599461555481,"280":0.2679961919784546,"281":0.6708151698112488,"282":0.839408814907074,"283":-0.37216734886169434,"284":-0.42843249440193176,"285":0.25207823514938354,"286":0.08232386410236359,"287":0.41207724809646606,"288":0.3129703998565674,"289":-0.1059085950255394,"290":-0.10810066759586334,"291":0.3276575207710266,"292":-0.06444793194532394,"293":0.00497904047369957,"294":-0.1895582228899002,"295":0.25282150506973267,"296":-0.15469324588775635,"297":-0.5718544125556946,"298":0.0340704619884491,"299":-0.3555343747138977,"300":0.51015704870224,"301":1.0171010494232178,"302":0.8488958477973938,"303":-0.27422231435775757,"304":-0.4854300320148468,"305":0.2973490059375763,"306":0.005722847301512957,"307":0.5245140194892883,"308":0.4785323739051819,"309":-0.025652268901467323,"310":-0.040699489414691925,"311":0.42361345887184143,"312":0.12636028230190277,"313":0.24603106081485748,"314":-0.2845393717288971,"315":0.2619923949241638,"316":-0.29002946615219116,"317":-0.6907140612602234,"318":-0.2970672845840454,"319":-0.44116055965423584,"320":0.01442427933216095,"321":0.9895221590995789,"322":0.12155432254076004,"323":-0.06885957717895508,"324":-0.14861777424812317,"325":0.16090190410614014,"326":0.18291284143924713,"327":0.9008671045303345,"328":0.11906243860721588,"329":0.12700021266937256,"330":0.1624436378479004,"331":0.027545778080821037,"332":0.4645923972129822,"333":0.3364155888557434,"334":-0.1158941239118576,"335":0.11378807574510574,"336":0.029562097042798996,"337":-0.015209749341011047,"338":-0.5565081238746643,"339":-0.3010268211364746,"340":-0.47664085030555725,"341":0.2585306763648987,"342":0.38946330547332764,"343":-0.124127596616745,"344":0.4292226731777191,"345":-0.20583996176719666,"346":0.9064279198646545,"347":0.7939913272857666,"348":-0.710324764251709,"349":0.25758302211761475,"350":0.16441680490970612,"351":-0.4794410467147827,"352":0.8139445781707764,"353":0.861603319644928,"354":0.3525993525981903,"355":-0.0778132900595665,"356":0.10692330449819565,"357":-0.30913853645324707,"358":-1.1587650775909424,"359":-0.005515143740922213,"360":0.6049174666404724,"361":0.2843136787414551,"362":0.23540450632572174,"363":-0.22274848818778992,"364":-0.6096053123474121,"365":-0.008105870336294174,"366":-0.10206295549869537,"367":-0.20605292916297913,"368":0.44602489471435547,"369":0.024144120514392853,"370":-0.0786532461643219,"371":0.4444911479949951,"372":-0.1786889135837555,"373":0.11240225285291672,"374":0.000056882949138525873,"375":-0.038974665105342865,"376":-0.22040389478206635,"377":-0.1577455997467041,"378":-0.017074499279260635,"379":-0.008885174989700317,"380":0.3432604968547821,"381":0.253487229347229,"382":1.1092143058776855,"383":-0.47847193479537964,"384":-0.39169779419898987,"385":0.45699185132980347,"386":0.2923010289669037,"387":0.47562655806541443,"388":0.34113237261772156,"389":-0.42328691482543945,"390":-0.6658756732940674,"391":0.31717750430107117,"392":-0.2862922251224518,"393":-0.4794115722179413,"394":-0.4497548043727875,"395":0.4800482392311096,"396":-0.405599981546402,"397":-0.48821598291397095,"398":0.5431448817253113,"399":-0.7251133322715759}},"inputBias":{"rows":20,"columns":1,"weights":{"0":0.748528778553009,"1":-0.383989542722702,"2":1.0673633813858032,"3":-0.4000990390777588,"4":0.819526731967926,"5":-0.565335750579834,"6":1.526877760887146,"7":1.6206190586090088,"8":1.2246829271316528,"9":-0.39353692531585693,"10":0.22632597386837006,"11":1.1457760334014893,"12":0.2874736487865448,"13":-0.022439943626523018,"14":-0.5372281670570374,"15":-0.4060392677783966,"16":-0.46854496002197266,"17":0.02331029437482357,"18":0.6219750642776489,"19":-0.37954503297805786}},"forgetMatrix":{"rows":20,"columns":20,"weights":{"0":0.3150920867919922,"1":-0.055220264941453934,"2":0.15515483915805817,"3":0.17026005685329437,"4":-0.36506006121635437,"5":0.18374530971050262,"6":0.4086475670337677,"7":0.0063016670756042,"8":-0.303282767534256,"9":-0.10896959155797958,"10":-0.1412794142961502,"11":0.05520613491535187,"12":-0.2044941782951355,"13":0.07690936326980591,"14":-0.3576674461364746,"15":0.07935955375432968,"16":-0.05082171782851219,"17":0.06155918911099434,"18":-0.2439153492450714,"19":-0.17863008379936218,"20":0.24120938777923584,"21":-0.030279111117124557,"22":-0.15191610157489777,"23":-0.028914907947182655,"24":-0.4290330410003662,"25":0.1926089972257614,"26":0.44261234998703003,"27":0.14706818759441376,"28":-0.2734120488166809,"29":-0.024127742275595665,"30":-0.24335286021232605,"31":0.1861741691827774,"32":0.12380430847406387,"33":-0.15607096254825592,"34":-0.23009195923805237,"35":0.007417954970151186,"36":0.10142433643341064,"37":-0.1344214379787445,"38":0.11357729882001877,"39":0.0925358235836029,"40":0.005706388503313065,"41":0.025757700204849243,"42":-0.10736531764268875,"43":-0.19462540745735168,"44":0.03513389453291893,"45":-0.38349950313568115,"46":-0.038398031145334244,"47":0.36918938159942627,"48":-0.184274360537529,"49":0.2348884791135788,"50":0.003610995365306735,"51":-0.14085815846920013,"52":0.3368377387523651,"53":-0.009105873294174671,"54":0.25887519121170044,"55":-0.1034693494439125,"56":0.45013365149497986,"57":0.027199234813451767,"58":-0.0017724474892020226,"59":0.2549426555633545,"60":-0.15798181295394897,"61":-0.22002729773521423,"62":-0.023892991244792938,"63":-0.02471933886408806,"64":0.028354467824101448,"65":0.032880302518606186,"66":-0.16864819824695587,"67":-0.08748741447925568,"68":0.13498687744140625,"69":-0.09624598175287247,"70":0.08855418860912323,"71":-0.03552049398422241,"72":0.04058283567428589,"73":0.001452472759410739,"74":-0.005451840348541737,"75":-0.030533574521541595,"76":-0.058718807995319366,"77":-0.019659655168652534,"78":0.09493045508861542,"79":0.17404954135417938,"80":0.36004638671875,"81":0.13276298344135284,"82":0.03111863136291504,"83":0.04473019763827324,"84":-0.4312610328197479,"85":0.11578865349292755,"86":0.5616433620452881,"87":-0.07364392280578613,"88":-0.43831387162208557,"89":-0.03406114503741264,"90":-0.16718493402004242,"91":0.03566031530499458,"92":-0.06777483969926834,"93":-0.04787300527095795,"94":-0.18305125832557678,"95":-0.006938226521015167,"96":-0.10436620563268661,"97":-0.02220059558749199,"98":-0.11885883659124374,"99":-0.05239523574709892,"100":0.029862962663173676,"101":-0.10570463538169861,"102":-0.07221748679876328,"103":-0.006481177173554897,"104":-0.10927117615938187,"105":-0.02014796808362007,"106":0.121702179312706,"107":0.1834278702735901,"108":-0.1872768998146057,"109":-0.009996582753956318,"110":-0.0865938812494278,"111":0.15799428522586823,"112":0.05794971063733101,"113":-0.0744553804397583,"114":-0.11892127990722656,"115":0.009794804267585278,"116":0.1652185618877411,"117":0.009911310859024525,"118":0.14522261917591095,"119":0.030213192105293274,"120":-0.11735742539167404,"121":-0.2654174268245697,"122":-0.3777865171432495,"123":-0.3631431758403778,"124":0.17944075167179108,"125":-0.3962821662425995,"126":-0.18884244561195374,"127":0.43541938066482544,"128":0.3312508165836334,"129":0.15292663872241974,"130":0.02488824725151062,"131":0.2483382225036621,"132":0.4635235071182251,"133":0.1849391758441925,"134":-0.33803805708885193,"135":-0.025190310552716255,"136":0.4944257140159607,"137":-0.20406129956245422,"138":0.3776792287826538,"139":0.4775063097476959,"140":-0.14523346722126007,"141":-0.32481488585472107,"142":-0.289191335439682,"143":-0.3410557508468628,"144":0.177570641040802,"145":-0.33419281244277954,"146":-0.13205739855766296,"147":0.554728090763092,"148":0.38501742482185364,"149":0.07484262436628342,"150":-0.06502104550600052,"151":0.263981431722641,"152":0.5959986448287964,"153":0.08411604911088943,"154":-0.17247694730758667,"155":0.033674366772174835,"156":0.5420418381690979,"157":-0.10135049372911453,"158":0.23939062654972076,"159":0.25444814562797546,"160":0.20709040760993958,"161":0.08564972132444382,"162":0.08419740945100784,"163":0.4136948883533478,"164":-0.5044008493423462,"165":0.5856204032897949,"166":0.5307916402816772,"167":-0.030710244551301003,"168":-0.48851191997528076,"169":-0.2782338857650757,"170":-0.05535043030977249,"171":0.200370654463768,"172":-0.23241686820983887,"173":0.019046485424041748,"174":-0.5151810050010681,"175":0.2343904674053192,"176":-0.05653952807188034,"177":0.25893744826316833,"178":-0.03823428973555565,"179":-0.3046835660934448,"180":0.06970269978046417,"181":-0.06593862920999527,"182":-0.20495593547821045,"183":-0.07733941078186035,"184":0.0224897637963295,"185":-0.10736549645662308,"186":0.10943228751420975,"187":0.2695484459400177,"188":0.1625625044107437,"189":0.006475025787949562,"190":-0.12127941846847534,"191":0.05292731523513794,"192":0.35498684644699097,"193":-0.032168611884117126,"194":0.03757759928703308,"195":-0.013912515714764595,"196":0.31032177805900574,"197":-0.16411972045898438,"198":0.1982685625553131,"199":0.16245536506175995,"200":0.0758054256439209,"201":-0.04388020560145378,"202":-0.13145433366298676,"203":-0.23577988147735596,"204":0.11051346361637115,"205":-0.2246876358985901,"206":0.06696213781833649,"207":0.3516688644886017,"208":0.05994555726647377,"209":0.11218191683292389,"210":-0.20241323113441467,"211":-0.10248430073261261,"212":0.4936296045780182,"213":-0.03558773174881935,"214":0.04641097038984299,"215":0.01500282809138298,"216":0.4133005142211914,"217":-0.04584527015686035,"218":0.05742757022380829,"219":0.0169301088899374,"220":0.05799756571650505,"221":-0.04178113862872124,"222":0.10990165174007416,"223":0.22764696180820465,"224":-0.2368602752685547,"225":0.3068672716617584,"226":0.10832858085632324,"227":-0.14948467910289764,"228":-0.1878625452518463,"229":-0.13437968492507935,"230":-0.028829017654061317,"231":0.08520779758691788,"232":-0.18644766509532928,"233":0.1330704241991043,"234":-0.26668232679367065,"235":0.09524692595005035,"236":-0.08444924652576447,"237":0.19445163011550903,"238":-0.2485000640153885,"239":-0.28253108263015747,"240":0.23685438930988312,"241":-0.08442060649394989,"242":0.02194160223007202,"243":-0.0074452925473451614,"244":-0.06832516193389893,"245":0.1691945195198059,"246":0.10007152706384659,"247":-0.04855354130268097,"248":-0.03927582874894142,"249":0.017135756090283394,"250":-0.1411798745393753,"251":0.0022386827040463686,"252":0.06282863020896912,"253":-0.05086785927414894,"254":0.050379011780023575,"255":-0.01715216413140297,"256":0.03699188306927681,"257":-0.08972521871328354,"258":-0.02035604789853096,"259":0.051736053079366684,"260":-0.3256160318851471,"261":-0.06458902359008789,"262":0.0010884529910981655,"263":0.4532203674316406,"264":-0.12658411264419556,"265":0.5982750058174133,"266":0.040222521871328354,"267":-0.29957741498947144,"268":0.19790118932724,"269":-0.38189497590065,"270":0.2612733542919159,"271":0.43719354271888733,"272":-0.3283748924732208,"273":0.3875458538532257,"274":-0.5415999889373779,"275":0.4493100941181183,"276":-0.4314810335636139,"277":-0.03038691356778145,"278":0.3954758644104004,"279":0.22921033203601837,"280":-0.07153785973787308,"281":-0.1902414709329605,"282":-0.07273957878351212,"283":0.321622371673584,"284":-0.1087234690785408,"285":0.40951210260391235,"286":0.17337316274642944,"287":-0.10321862250566483,"288":-0.07540714740753174,"289":-0.25004592537879944,"290":-0.011153901927173138,"291":0.21833643317222595,"292":0.03941817954182625,"293":0.07776695489883423,"294":-0.25326159596443176,"295":0.3277941346168518,"296":-0.1219029650092125,"297":0.0748918280005455,"298":0.08780421316623688,"299":-0.013187679462134838,"300":-0.16948439180850983,"301":-0.13994641602039337,"302":-0.15731051564216614,"303":0.2812826335430145,"304":-0.11924311518669128,"305":0.3650783896446228,"306":0.031833723187446594,"307":0.005533915478736162,"308":0.008523267693817616,"309":-0.29747527837753296,"310":0.1448829621076584,"311":0.3415084183216095,"312":0.07080104202032089,"313":0.22508415579795837,"314":-0.4043769836425781,"315":0.3767257630825043,"316":-0.05722333490848541,"317":0.043984487652778625,"318":0.34990277886390686,"319":0.2612733542919159,"320":-0.07242075353860855,"321":-0.13213525712490082,"322":-0.0366661511361599,"323":-0.32438671588897705,"324":0.3101136386394501,"325":-0.2605777978897095,"326":-0.2698892056941986,"327":0.11714043468236923,"328":0.09322121739387512,"329":0.15446828305721283,"330":-0.14277976751327515,"331":-0.03356165066361427,"332":0.17368505895137787,"333":0.026922455057501793,"334":0.15667250752449036,"335":-0.23783379793167114,"336":0.20627982914447784,"337":-0.08032326400279999,"338":0.10623344779014587,"339":0.0808485746383667,"340":0.4357287883758545,"341":0.3802993595600128,"342":0.11262430250644684,"343":0.060060903429985046,"344":-0.4126693606376648,"345":-0.167619526386261,"346":0.4263042211532593,"347":0.20850326120853424,"348":-0.5485746264457703,"349":0.36516764760017395,"350":-0.26851803064346313,"351":-0.2982008755207062,"352":0.032320279628038406,"353":-0.4816075265407562,"354":0.34663087129592896,"355":-0.3496693968772888,"356":0.20141658186912537,"357":-0.046383313834667206,"358":-0.3521832823753357,"359":0.013900592923164368,"360":-0.009550928138196468,"361":-0.034315720200538635,"362":-0.132163405418396,"363":-0.07113998383283615,"364":0.05821268633008003,"365":-0.025059135630726814,"366":-0.036994412541389465,"367":-0.059085290879011154,"368":0.1431686133146286,"369":-0.08989892154932022,"370":-0.0409235917031765,"371":0.1959627866744995,"372":0.20682738721370697,"373":-0.0979902520775795,"374":-0.17729157209396362,"375":-0.04582454636693001,"376":-0.03774600476026535,"377":-0.2650209367275238,"378":0.2849443554878235,"379":0.23380796611309052,"380":-0.0571097768843174,"381":-0.1332707405090332,"382":-0.13006721436977386,"383":0.024425357580184937,"384":-0.22767041623592377,"385":0.0561901219189167,"386":0.15737703442573547,"387":0.14233021438121796,"388":-0.09168598055839539,"389":-0.11562804132699966,"390":-0.028037045150995255,"391":0.17286643385887146,"392":0.0471341498196125,"393":0.07795000076293945,"394":-0.1644352674484253,"395":0.20920024812221527,"396":0.12694457173347473,"397":0.16053596138954163,"398":0.11926545947790146,"399":-0.04952402785420418}},"forgetHidden":{"rows":20,"columns":20,"weights":{"0":0.35776805877685547,"1":0.052291326224803925,"2":-0.27505478262901306,"3":-0.6501937508583069,"4":-0.29833996295928955,"5":0.6807376742362976,"6":-0.32199788093566895,"7":-0.20257997512817383,"8":0.8396285176277161,"9":-0.5745924711227417,"10":-0.5224387645721436,"11":0.5698664784431458,"12":-0.5213859677314758,"13":-1.1164242029190063,"14":-0.8413549065589905,"15":0.9573525786399841,"16":-0.5970765948295593,"17":0.2018129527568817,"18":0.9667373299598694,"19":-0.7622784376144409,"20":-0.2069992572069168,"21":0.4929068684577942,"22":-0.15241815149784088,"23":-0.3884352445602417,"24":0.334267258644104,"25":0.7559178471565247,"26":-0.10551279783248901,"27":0.29967474937438965,"28":0.04209863394498825,"29":-0.6095372438430786,"30":-0.5145494341850281,"31":-0.05776013806462288,"32":-0.3190045654773712,"33":-0.9128624796867371,"34":-0.7597714066505432,"35":0.8300043940544128,"36":-0.5173242688179016,"37":0.41058290004730225,"38":0.6945397853851318,"39":-0.6666764616966248,"40":-1.4240083694458008,"41":0.39991745352745056,"42":0.0234312005341053,"43":0.30883586406707764,"44":1.4151020050048828,"45":0.11719119548797607,"46":0.07486867159605026,"47":0.23730134963989258,"48":-1.0620808601379395,"49":-0.131840318441391,"50":-0.5096061825752258,"51":-1.0996932983398438,"52":0.6717992424964905,"53":0.6147756576538086,"54":0.11224889755249023,"55":-0.11815325915813446,"56":0.04031463339924812,"57":-0.09292474389076233,"58":-0.7050887942314148,"59":-0.3333577811717987,"60":0.5380061864852905,"61":0.19637764990329742,"62":-0.04771360382437706,"63":-0.2509869337081909,"64":-0.7387875318527222,"65":0.17965184152126312,"66":-0.34282395243644714,"67":-0.1627892106771469,"68":0.3255431354045868,"69":-0.05758962407708168,"70":0.033205293118953705,"71":0.45380550622940063,"72":-0.1224960908293724,"73":-0.15334966778755188,"74":-0.2821110785007477,"75":0.4006843566894531,"76":-0.2383207082748413,"77":-0.3269215226173401,"78":0.11224961280822754,"79":-0.20194169878959656,"80":0.3625580966472626,"81":-0.1158754751086235,"82":-0.010484710335731506,"83":-0.6660532355308533,"84":-0.37640154361724854,"85":0.6852881908416748,"86":-0.17335745692253113,"87":-0.152107834815979,"88":0.8770179748535156,"89":-0.6965083479881287,"90":-0.4354536831378937,"91":0.6924928426742554,"92":-0.8382542133331299,"93":-1.2809257507324219,"94":-0.9501980543136597,"95":1.0581883192062378,"96":-0.5936786532402039,"97":0.1242007315158844,"98":1.2101317644119263,"99":-0.8432264924049377,"100":-0.17107896506786346,"101":0.23177580535411835,"102":-0.13752475380897522,"103":-0.3033336400985718,"104":0.21779610216617584,"105":0.40175318717956543,"106":-0.3464147448539734,"107":0.19293348491191864,"108":0.0675833448767662,"109":-0.2767120599746704,"110":-0.42864105105400085,"111":0.1191834881901741,"112":-0.31996098160743713,"113":-0.4038774371147156,"114":-0.37641483545303345,"115":0.46257415413856506,"116":-0.2473791092634201,"117":0.29943594336509705,"118":0.28042200207710266,"119":-0.5221803784370422,"120":-1.1254956722259521,"121":-0.13082510232925415,"122":-0.32905876636505127,"123":0.3678249418735504,"124":1.1791763305664062,"125":0.10603883862495422,"126":-0.278200626373291,"127":-0.2125643491744995,"128":-0.7841489315032959,"129":-0.03816751018166542,"130":-0.26603081822395325,"131":-0.9407894015312195,"132":0.6102064251899719,"133":0.3960510790348053,"134":0.19565710425376892,"135":-0.20141343772411346,"136":-0.03640155494213104,"137":0.5288318395614624,"138":-0.45444098114967346,"139":-0.10881954431533813,"140":-1.3735960721969604,"141":0.391002357006073,"142":-0.48510879278182983,"143":0.3796460032463074,"144":1.2547687292099,"145":0.46717727184295654,"146":-0.3213081359863281,"147":-0.0733761414885521,"148":-0.6978101134300232,"149":-0.11239951848983765,"150":-0.24755780398845673,"151":-0.9698871374130249,"152":1.1846667528152466,"153":0.2635436952114105,"154":-0.20377708971500397,"155":0.2738369405269623,"156":0.016497090458869934,"157":0.7210139632225037,"158":-0.5582117438316345,"159":-0.47548431158065796,"160":0.41479894518852234,"161":0.2304752916097641,"162":-0.5643861293792725,"163":-0.3428295850753784,"164":-0.3666970729827881,"165":0.43001464009284973,"166":-0.7568559050559998,"167":-0.6594867706298828,"168":0.5972734093666077,"169":-0.13029401004314423,"170":0.2134466916322708,"171":0.47339797019958496,"172":-0.23354865610599518,"173":-0.7800454497337341,"174":-0.5097213983535767,"175":0.584194004535675,"176":-0.20057126879692078,"177":0.38172462582588196,"178":0.5012791156768799,"179":-0.47483786940574646,"180":-0.2505775988101959,"181":0.8746681809425354,"182":-0.43241119384765625,"183":0.13732248544692993,"184":0.1465737223625183,"185":0.30740299820899963,"186":-0.45135438442230225,"187":0.8553761839866638,"188":-0.2612607479095459,"189":0.15697553753852844,"190":0.2334163337945938,"191":-0.1583838015794754,"192":0.3688487708568573,"193":0.4169292449951172,"194":-0.17642781138420105,"195":-0.05301883444190025,"196":-0.012544858269393444,"197":0.3320707678794861,"198":-0.5575568079948425,"199":-0.20457805693149567,"200":-0.5226044654846191,"201":0.9532981514930725,"202":-0.04548022150993347,"203":0.22307057678699493,"204":0.6115299463272095,"205":0.26506033539772034,"206":-0.27923011779785156,"207":0.6230281591415405,"208":-0.5925430059432983,"209":0.26225870847702026,"210":0.19813665747642517,"211":-0.6118760108947754,"212":0.531424343585968,"213":0.42307376861572266,"214":-0.22404813766479492,"215":0.1114577054977417,"216":0.0476546548306942,"217":0.45820528268814087,"218":-0.8088756799697876,"219":-0.445317804813385,"220":0.5127322673797607,"221":0.23530207574367523,"222":-0.2737540304660797,"223":-0.5386115312576294,"224":-0.42552080750465393,"225":0.44080981612205505,"226":-0.5753687024116516,"227":-0.35185062885284424,"228":0.6290130019187927,"229":-0.40219324827194214,"230":-0.2645958960056305,"231":0.4140395522117615,"232":-0.47303298115730286,"233":-0.7707597613334656,"234":-0.5882256627082825,"235":0.7042014002799988,"236":-0.4465714693069458,"237":0.2650904953479767,"238":0.6520147323608398,"239":-0.49175092577934265,"240":0.287600040435791,"241":0.8194295167922974,"242":-0.2519736886024475,"243":-0.003664974356070161,"244":-0.4541977345943451,"245":0.29472821950912476,"246":-0.19048576056957245,"247":0.3832245171070099,"248":0.3610769212245941,"249":0.2250305712223053,"250":0.3806316554546356,"251":0.11819153279066086,"252":0.20770613849163055,"253":-0.025613613426685333,"254":-0.34466752409935,"255":0.32685786485671997,"256":-0.06129477173089981,"257":0.11965668201446533,"258":-0.13931678235530853,"259":-0.36894387006759644,"260":0.6101993918418884,"261":-0.8958091735839844,"262":-0.8943740725517273,"263":-0.07140916585922241,"264":-0.5871462225914001,"265":-0.06787113100290298,"266":-1.4317225217819214,"267":-1.6530208587646484,"268":0.02334943413734436,"269":-0.0931379422545433,"270":-0.13729064166545868,"271":0.33611002564430237,"272":-0.7127625942230225,"273":-0.18572233617305756,"274":0.04808095097541809,"275":-0.10678506642580032,"276":-0.12687651813030243,"277":0.029076257720589638,"278":0.5394360423088074,"279":0.17515072226524353,"280":0.09683264791965485,"281":0.05174024775624275,"282":-0.4926222562789917,"283":-0.2282349318265915,"284":-0.04987373948097229,"285":0.26242321729660034,"286":-0.7971528172492981,"287":-1.0105583667755127,"288":-0.023142607882618904,"289":-0.15129506587982178,"290":-0.12070286273956299,"291":0.1321314424276352,"292":-0.32538244128227234,"293":-0.20074768364429474,"294":-0.16157466173171997,"295":0.16831667721271515,"296":-0.23812486231327057,"297":0.5350273251533508,"298":0.2509748339653015,"299":-0.17661155760288239,"300":0.15093974769115448,"301":-0.34866952896118164,"302":-0.8570942282676697,"303":-0.23138104379177094,"304":-0.058974314481019974,"305":0.1978388875722885,"306":-1.167046070098877,"307":-1.593309760093689,"308":-0.11820446699857712,"309":-0.2888576090335846,"310":-0.15485356748104095,"311":0.06972181051969528,"312":-0.49008333683013916,"313":-0.2847880423069,"314":-0.22243186831474304,"315":0.11582159996032715,"316":-0.12955476343631744,"317":0.6028894782066345,"318":0.38043221831321716,"319":-0.17185844480991364,"320":0.06905493140220642,"321":0.6674492359161377,"322":-0.0355110839009285,"323":-0.18531274795532227,"324":-0.08939273655414581,"325":0.3389873504638672,"326":-0.21188682317733765,"327":0.6781350374221802,"328":0.12557587027549744,"329":-0.038229431957006454,"330":-0.007459190674126148,"331":0.15098348259925842,"332":0.034678518772125244,"333":-0.042073410004377365,"334":-0.19342947006225586,"335":0.13833704590797424,"336":-0.1885727494955063,"337":0.15063197910785675,"338":-0.08899693936109543,"339":-0.2539794445037842,"340":-0.8548569679260254,"341":0.2473256140947342,"342":0.8994554281234741,"343":-0.19670367240905762,"344":0.7321415543556213,"345":-0.053170956671237946,"346":1.1656163930892944,"347":1.2392631769180298,"348":-0.5394653081893921,"349":-0.04299575835466385,"350":-0.4127223789691925,"351":-0.6473013162612915,"352":0.1546158343553543,"353":0.18555407226085663,"354":-0.16128361225128174,"355":0.13844332098960876,"356":0.0047867088578641415,"357":-0.6828708052635193,"358":-0.1885896474123001,"359":-0.42874225974082947,"360":0.7977464199066162,"361":0.22014708817005157,"362":-0.7077500820159912,"363":0.1596650332212448,"364":-0.9315541982650757,"365":-0.12546734511852264,"366":-0.8067687153816223,"367":-0.4763677716255188,"368":0.23207557201385498,"369":0.3597421646118164,"370":0.607475221157074,"371":0.43125444650650024,"372":0.13174393773078918,"373":0.33567124605178833,"374":0.1114255040884018,"375":-0.012541488744318485,"376":0.23833158612251282,"377":0.10729425400495529,"378":-0.4046856164932251,"379":0.21056269109249115,"380":-0.5704845190048218,"381":0.27101200819015503,"382":-0.4858650267124176,"383":-0.08139604330062866,"384":0.6905062198638916,"385":0.4414478540420532,"386":-0.5631895661354065,"387":-0.4026528596878052,"388":-0.2939312756061554,"389":-0.30914950370788574,"390":-0.4051119089126587,"391":-0.2653959095478058,"392":-0.28797248005867004,"393":-0.23830175399780273,"394":-0.3365429937839508,"395":0.3254980444908142,"396":-0.19037273526191711,"397":0.7386377453804016,"398":0.1387036293745041,"399":-0.44490331411361694}},"forgetBias":{"rows":20,"columns":1,"weights":{"0":0,"1":0,"2":0,"3":0,"4":0,"5":0,"6":0,"7":0,"8":0,"9":0,"10":0,"11":0,"12":0,"13":0,"14":0,"15":0,"16":0,"17":0,"18":0,"19":0}},"outputMatrix":{"rows":20,"columns":20,"weights":{"0":-0.400873601436615,"1":-0.47361481189727783,"2":-0.38679566979408264,"3":-0.6452671885490417,"4":0.7322178483009338,"5":-0.6375982761383057,"6":-0.6893964409828186,"7":0.2152058482170105,"8":0.5268175601959229,"9":0.24395689368247986,"10":0.07584768533706665,"11":0.056418318301439285,"12":0.46378952264785767,"13":0.14791682362556458,"14":0.2025977373123169,"15":-0.369569331407547,"16":0.43220505118370056,"17":-0.431062251329422,"18":0.4036653935909271,"19":0.42562922835350037,"20":-0.2634028494358063,"21":-0.1770801693201065,"22":-0.24846240878105164,"23":-0.11645904183387756,"24":0.27123790979385376,"25":0.055339280515909195,"26":-0.3769227862358093,"27":-0.18535004556179047,"28":0.45997756719589233,"29":-0.1577327847480774,"30":-0.03615425154566765,"31":0.3037554621696472,"32":0.05802270025014877,"33":0.07408280670642853,"34":-0.5364793539047241,"35":0.15175096690654755,"36":-0.005903818178921938,"37":0.11047479510307312,"38":0.3911295235157013,"39":-0.04501502960920334,"40":-0.23517754673957825,"41":-0.16371233761310577,"42":-0.356620192527771,"43":-0.42130157351493835,"44":0.33329668641090393,"45":-0.6251848936080933,"46":-0.18831533193588257,"47":0.4881729781627655,"48":0.30887719988822937,"49":0.107225701212883,"50":0.5415000915527344,"51":0.004192615393549204,"52":0.47284841537475586,"53":0.31852179765701294,"54":0.3787015378475189,"55":-0.07107075303792953,"56":0.5742821097373962,"57":0.04315383359789848,"58":0.23194894194602966,"59":0.4614013731479645,"60":0.27044951915740967,"61":0.07196597754955292,"62":0.23120777308940887,"63":-1.0846138000488281,"64":0.4193873405456543,"65":-0.6113166809082031,"66":-0.17509135603904724,"67":0.29980477690696716,"68":-0.0454629585146904,"69":0.3614407181739807,"70":-0.5856369137763977,"71":-0.7656907439231873,"72":0.35554131865501404,"73":-0.412437379360199,"74":0.8669324517250061,"75":-0.9223873615264893,"76":0.3694353997707367,"77":0.1313713639974594,"78":-0.48472359776496887,"79":-0.13194355368614197,"80":-0.39976319670677185,"81":-0.5178048610687256,"82":-0.3110507130622864,"83":-0.49690598249435425,"84":0.7118091583251953,"85":-0.5949168801307678,"86":-0.7220466136932373,"87":0.3809235990047455,"88":0.5520898103713989,"89":0.2053854614496231,"90":0.13380073010921478,"91":-0.16435685753822327,"92":0.4590929448604584,"93":0.038238778710365295,"94":0.47822093963623047,"95":-0.2959223985671997,"96":0.4780109226703644,"97":-0.36045441031455994,"98":0.23873527348041534,"99":0.3831724524497986,"100":0.42953649163246155,"101":0.1727205514907837,"102":0.3152526915073395,"103":0.26551181077957153,"104":-0.4091804027557373,"105":0.33802369236946106,"106":0.36232858896255493,"107":-0.045123595744371414,"108":-0.42897161841392517,"109":0.12433674931526184,"110":-0.26003798842430115,"111":-0.3481895327568054,"112":-0.3302845060825348,"113":-0.24183399975299835,"114":0.16516269743442535,"115":-0.012761056423187256,"116":-0.07898938655853271,"117":0.21637079119682312,"118":-0.5660070180892944,"119":-0.4168264865875244,"120":-0.3554059863090515,"121":-0.4558660089969635,"122":-0.5896806120872498,"123":-0.6157389283180237,"124":0.8876150846481323,"125":-0.8154168725013733,"126":-0.8571317791938782,"127":0.4044625759124756,"128":0.6241135597229004,"129":0.8277597427368164,"130":-0.4767927825450897,"131":0.30433136224746704,"132":0.7582986354827881,"133":-0.247726172208786,"134":-0.09534730762243271,"135":-1.1855931282043457,"136":0.46232640743255615,"137":-0.7614893913269043,"138":0.6760116815567017,"139":1.1167885065078735,"140":-0.598541259765625,"141":-0.6345137357711792,"142":-0.48320433497428894,"143":-0.5571578145027161,"144":1.548839807510376,"145":-0.7986328601837158,"146":-1.4730137586593628,"147":0.3479433059692383,"148":1.1818451881408691,"149":0.7439686059951782,"150":-0.4737454950809479,"151":0.19349981844425201,"152":0.6786098480224609,"153":-0.14088526368141174,"154":0.022870108485221863,"155":-1.2483046054840088,"156":0.342132568359375,"157":-1.002722978591919,"158":0.5302135348320007,"159":1.2256238460540771,"160":-0.4624002277851105,"161":-0.4050312936306,"162":-0.772354245185852,"163":-0.9982925057411194,"164":0.888487696647644,"165":-1.090047001838684,"166":-0.8803779482841492,"167":0.4809293746948242,"168":0.40000903606414795,"169":0.27265438437461853,"170":-0.01735900714993477,"171":0.6124953031539917,"172":0.9554945230484009,"173":0.08469543606042862,"174":-0.21514378488063812,"175":-0.5327823162078857,"176":0.7187214493751526,"177":-0.20586128532886505,"178":1.0796732902526855,"179":0.8617267608642578,"180":0.23116406798362732,"181":0.07231689244508743,"182":0.2661844789981842,"183":-0.1962306797504425,"184":0.37887072563171387,"185":-0.05419294163584709,"186":-0.1824856996536255,"187":0.005854960530996323,"188":0.09723259508609772,"189":0.5226093530654907,"190":-0.5135060548782349,"191":-0.4847637414932251,"192":-0.11846107989549637,